-0.034579671919345856,-0.07058599591255188,0.19647514820098877,0.09485089033842087,-0.08302070945501328,0.043224915862083435,0.1989579051733017,-0.0857384130358696,-0.23899461328983307,0.20067045092582703,-0.050425935536623,-0.27326083183288574,-0.04969887435436249,0.1431797444820404,0.024147525429725647,-0.004475697875022888,0.12055101245641708,0.07497069984674454,0.012127448804676533,-0.1939571499824524,-0.049256954342126846,0.15639536082744598,0.19272130727767944,-0.03842636197805405,0.06874631345272064,0.05148418992757797,-0.0710897222161293,-0.2548341453075409,0.12300950288772583,-0.14042580127716064,-0.16756942868232727,-0.019322803243994713,-0.0950925275683403,-0.007115804590284824,-0.14050015807151794,0.11623901128768921,-0.07564985007047653,-0.19896094501018524,-0.18024638295173645,0.2804112732410431,0.15468183159828186,-0.12825393676757812,0.16323064267635345,0.10688992589712143,-0.18054643273353577,-0.11423195153474808,0.03996441140770912,-0.008532818406820297,0.21387852728366852,0.07177862524986267,-0.07186728715896606,0.20175355672836304,-0.10162725299596786,0.06273475289344788,0.08692971616983414,0.05831676721572876,0.07541701197624207,0.19311541318893433,-0.17241349816322327,-0.01669926941394806,0.23966346681118011,-0.13436977565288544,-0.24116291105747223,-0.006627284921705723,0.03560997545719147,-0.008969597518444061,0.049902625381946564,-0.1308518946170807,0.09692057222127914,0.11107904464006424,0.19799725711345673,-0.03967135027050972,0.16698037087917328,0.0006419462151825428,-0.12276920676231384,0.0014828331768512726,-0.2331068068742752,0.24901080131530762,-0.25469744205474854,0.21292558312416077,-0.06714409589767456,0.24012380838394165,0.07599388062953949,0.16746056079864502,0.01787514053285122,-0.20926080644130707,0.10804052650928497,-0.21571196615695953,0.007320963311940432,-0.2715803384780884,-0.17688345909118652,-0.19069154560565948,0.05599631369113922,-0.20255732536315918,-0.18951697647571564,0.18397971987724304,-0.18096598982810974,-0.16436783969402313,0.0535949282348156,0.065830759704113,-0.10313528031110764,0.1003945842385292,-0.0469987578690052,-0.1511802226305008,-0.13331100344657898,0.1811244636774063,-0.053000591695308685,0.024838455021381378,0.051754653453826904,-0.03800269961357117,-0.043223313987255096,0.18360403180122375,0.31037434935569763,-0.04953612759709358,0.020922789350152016,-0.04377157986164093,-0.1186211034655571,-0.23240645229816437,0.016374552622437477,0.19283708930015564,0.08128973096609116,-0.041186295449733734,-0.13268111646175385,0.18634746968746185,0.21270200610160828,0.06731586903333664,-0.17634530365467072,-0.1423230618238449,-0.05373435840010643,-0.16592459380626678,0.0016964167589321733,0.2522541880607605,0.295399934053421,-0.00131758872885257,0.04273267462849617
0.019754841923713684,-0.08638609200716019,0.011325104162096977,-0.06329203397035599,-0.13940468430519104,-0.060714516788721085,0.05392514541745186,0.013297410681843758,0.1585870236158371,0.05748993158340454,0.06857625395059586,-0.06126647815108299,-0.07041476666927338,-0.049197006970644,-0.13076026737689972,-0.06707218289375305,-0.16322936117649078,0.04828481003642082,0.08918410539627075,0.21123453974723816,0.056431982666254044,-0.04033850133419037,0.11868959665298462,-0.005251213908195496,0.0017197879496961832,-0.014009629376232624,0.015915997326374054,-0.12705758213996887,0.043724652379751205,-0.1170789897441864,0.06206204742193222,-0.0970645621418953,0.028456589207053185,-0.09291750937700272,-0.11212935298681259,-0.05726918950676918,-0.03612985834479332,0.027869094163179398,0.11876337230205536,0.05372541397809982,0.031423814594745636,-0.03431117534637451,0.05975416675209999,0.008814265951514244,-0.06038157641887665,-0.0027799252420663834,-0.003793605137616396,-0.052256666123867035,0.10221484303474426,-0.06329600512981415,-0.023533647879958153,0.04676288366317749,0.00791719276458025,-0.06664340198040009,-0.05503386631608009,-0.09407361596822739,0.0488147996366024,0.01044920738786459,0.128974050283432,0.07730349153280258,0.09867555648088455,0.02927286922931671,-0.12303821742534637,-0.11822834610939026,-0.18651644885540009,-0.11185366660356522,-0.23944151401519775,0.054441142827272415,0.09361689537763596,0.2737872004508972,0.15812939405441284,0.022310324013233185,0.00013930162822362036,0.08927948027849197,0.09486885368824005,0.07135412096977234,-0.18133370578289032,-0.11975051462650299,0.008101042360067368,-0.16976752877235413,-0.11110205948352814,-0.07682604342699051,0.18152734637260437,-0.008637191727757454,0.18030641973018646,-0.13113844394683838,0.18453246355056763,-0.1365053951740265,0.008634214289486408,-0.20271851122379303,-0.03010823018848896,-0.03889923542737961,0.008300267159938812,0.01950542815029621,-0.09851893037557602,-0.013443966396152973,0.02062532678246498,-0.09227156639099121,0.1279454529285431,-0.038633376359939575,-0.024972479790449142,0.010631625540554523,0.010165916755795479,-0.030803345143795013,-0.06898724287748337,-0.05977514013648033,0.037827085703611374,0.03622422739863396,0.07744016498327255,0.07216382771730423,0.1231674998998642,-0.022509651258587837,-0.058651961386203766,-0.08553794771432877,-0.12442588806152344,-0.13594256341457367,-0.2790512144565582,0.07372166961431503,0.09174028784036636,0.23548035323619843,0.1256311684846878,0.029762716963887215,0.04311692342162132,0.11435870826244354,0.0592743381857872,0.0923689678311348,-0.1667313128709793,-0.059984538704156876,0.02869517356157303,-0.15826711058616638,-0.10870173573493958,-0.09061753749847412,0.19034124910831451,0.00912427343428135,0.18408487737178802,-0.058190733194351196,0.1354638785123825,-0.022122278809547424,-0.020909572020173073,-0.14538024365901947,-0.007907499559223652,0.011044992133975029,0.06166636198759079,0.051252543926239014,-0.07620865851640701,0.039163604378700256,0.03401636704802513,-0.09619081020355225,0.10042032599449158,-0.032620545476675034,-0.07164445519447327,0.004594992846250534,-0.04546188935637474,-0.036443013697862625,-0.0811632052063942,-0.040881767868995667,0.029397470876574516,0.040249861776828766,0.06546473503112793,0.07894330471754074,0.09469451755285263,0.018690476194024086,-0.08257792890071869,-0.1278628557920456,-0.11378735303878784,-0.1664193868637085,-0.22388096153736115,0.05068214237689972,0.12012004107236862,0.24968868494033813,0.12085352838039398,0.004243812058120966,-0.020863955840468407,0.07755707204341888,0.03214775398373604,0.030539657920598984,-0.16049890220165253,-0.12533333897590637,0.009348941035568714,-0.12122241407632828,-0.09893924742937088,-0.059535738080739975,0.11596431583166122,0.04381970316171646,0.11020207405090332,-0.024953240528702736,0.15898051857948303,-0.01536700502038002,-0.02326710894703865,-0.10697668790817261,-0.007191239390522242,-0.013363534584641457,-0.0008728279499337077,0.06817717850208282,-0.11424431204795837,0.01243529561907053,-0.0324007123708725,-0.049651604145765305,0.07616588473320007,-0.003259775461629033,-0.017619634047150612,0.0368342362344265,-0.052880752831697464,0.031716253608465195,-0.129623144865036,-0.04347535967826843,-0.031088542193174362,0.04861120507121086,0.08752144128084183,0.06654701381921768,0.05298822373151779,-0.017946353182196617,-0.08569212257862091,-0.1382976621389389,-0.08357221633195877,-0.09902485460042953,-0.1930021494626999,0.041643571108579636,0.12399376183748245,0.21435511112213135,0.08099841326475143,0.02356540970504284,0.019647913053631783,0.04869924113154411,0.024542009457945824,0.021498510614037514,-0.14803200960159302,-0.09164237231016159,0.029622750356793404,-0.07957816123962402,-0.05050032213330269,-0.04715076833963394,0.03760058432817459,0.059294894337654114,0.04435538873076439,-0.04225901886820793,0.15821777284145355,-0.030425837263464928,0.012115447781980038,-0.08654119074344635,0.03811155632138252,-0.016421619802713394,0.020627425983548164,0.08170747011899948,-0.06685537099838257,-0.016691887751221657,-0.02878790721297264,-0.030302751809358597,0.08378302305936813,-0.016492608934640884,-0.030874380841851234,0.06478358805179596,-0.056423161178827286,0.04103665053844452,-0.037065666168928146,-0.026137109845876694,-0.029970737174153328,0.036195460706949234,0.02639039419591427,0.11798281967639923,0.1173681989312172,0.0077396780252456665,-0.012382470071315765,-0.07630852609872818,-0.10382106900215149,-0.13173843920230865,-0.17043320834636688,-0.02711477316915989,0.09343215823173523,0.15884914994239807,0.13820214569568634,-0.06478913873434067,0.04540858417749405,0.06282588839530945,0.005326211452484131,0.04830683395266533,-0.09207827597856522,-0.14510831236839294,0.05705736204981804,-0.07102760672569275,-0.0653628408908844,-0.0881323516368866,0.01342716533690691,0.02669207565486431,0.04007761925458908,-0.021343223750591278,0.19139596819877625,-0.09126943349838257,0.020240508019924164,-0.013639402575790882,0.004451395012438297,0.01840062253177166,-0.020557034760713577,0.05873113498091698,-0.051223911345005035,0.03485577180981636,-0.012237390503287315,-0.1191323772072792,0.10727124661207199,-0.009474159218370914,-0.0743030235171318,0.007928910665214062,-0.09149610251188278,0.074588842689991,-0.03318876400589943,-0.022630618885159492,0.03541935235261917,-0.0593414269387722,0.048631079494953156,0.12641537189483643,0.12003437429666519,-0.030993929132819176,-0.059372663497924805,-0.13435937464237213,-0.08862785249948502,-0.13077624142169952,-0.1584576666355133,0.0128302201628685,0.14900730550289154,0.1418973058462143,0.1342933475971222,-0.016528720036149025,0.037397850304841995,-0.0034399686846882105,0.040113285183906555,0.0072312913835048676,-0.09492668509483337,-0.1188286617398262,0.0881630927324295,-0.08487431704998016,0.009859230369329453,-0.06509897857904434,0.011721814051270485,-0.018552321940660477,0.08628705143928528,-0.0005083968862891197,0.1551118940114975,-0.061081670224666595,-0.014841645956039429,-0.08070304244756699,-0.03254065662622452,-0.002840599277988076,-0.03215053305029869,0.10217149555683136,-0.09794481843709946,0.05870402604341507,0.009662147611379623,-0.07851282507181168,0.11165355890989304,-0.03020698018372059,-0.03794695436954498,0.04114620015025139,-0.08941636234521866,0.06196107715368271,-0.022062692791223526,-0.04810349643230438,0.005767100024968386,-0.06951756030321121,0.004619448911398649,0.05267232656478882,0.09178425371646881,-0.0011894541094079614,-0.015322908759117126,-0.13107334077358246,-0.04666357487440109,-0.09471846371889114,-0.212240070104599,0.06717724353075027,0.12101103365421295,0.12341680377721786,0.1157117411494255,0.004352849908173084,0.05032423511147499,-0.04848559945821762,-0.009500955231487751,0.01003300305455923,-0.13826698064804077,-0.022151336073875427,0.09424570947885513,-0.08102469891309738,-0.036986976861953735,-0.024249807000160217,0.08134391903877258,-0.01774120330810547,0.11085917055606842,-0.008137061260640621,0.07545951008796692,0.08869268000125885,-0.07272561639547348,-0.13446038961410522,0.03207433968782425,0.030192220583558083,-0.049342360347509384,0.055404745042324066,-0.07569412887096405,0.01913592964410782,-0.08022323250770569,-0.10072071850299835,0.11093153804540634,0.011405191384255886,-0.042338546365499496,0.085776187479496,-0.10788697749376297,-0.014741969294846058,-0.05202452838420868,0.020041296258568764,-0.06572210788726807,-0.011736391112208366,0.011425863020122051,0.04483876749873161,0.10509181767702103,-0.06274015456438065,-0.008083272725343704,-0.1295301765203476,-0.03349234536290169,-0.11211119592189789,-0.16003140807151794,0.07917191833257675,0.0892946645617485,0.0657510831952095,0.09263705462217331,-0.017227204516530037,0.03531854227185249,-0.04759468883275986,-0.04000480845570564,0.034976739436388016,-0.058150310069322586,-0.010958959348499775,0.09084303677082062,-0.06947414577007294,-0.1005428209900856,-0.03308530151844025,0.1286405771970749,-0.020415833219885826,0.11065571010112762,0.01995907537639141,0.07975979894399643,0.08964337408542633,-0.13703730702400208,-0.09754472225904465,-0.025659479200839996,0.041796449571847916,0.0004896242753602564,0.0370168574154377,-0.047298673540353775,0.037348344922065735,-0.05197298526763916,-0.06443043798208237,0.033041782677173615,0.0021385932341217995,-0.06929907947778702,0.10000095516443253,-0.06643534451723099,-0.004255599342286587,-0.03162653371691704,0.01951386220753193,-0.04132618382573128,0.008640573360025883,-0.028302373364567757,0.037522729486227036,0.08042300492525101,-0.06582367420196533,-0.029315758496522903,-0.06501830369234085,-0.06720223277807236,-0.14639824628829956,-0.17726440727710724,0.08304370939731598,0.10235188901424408,0.07639870047569275,0.11471684277057648,-0.05770838260650635,0.0008929598843678832,-0.03714952617883682,-0.03230177238583565,0.03202272206544876,-0.08304828405380249,-0.0790853202342987,0.10820081830024719,-0.031982287764549255,-0.12449301034212112,-0.023901687934994698,0.14239764213562012,0.00026939105009660125,0.1089673638343811,0.024441570043563843,0.05315852165222168,0.06805315613746643,-0.07315269112586975,-0.07638274878263474,-0.015707949176430702,0.08777999132871628,0.01306432019919157,0.08877664804458618,-0.025952132418751717,0.0647987350821495,-0.05992530286312103,-0.06052600219845772,0.04271013289690018,-0.01030521560460329,-0.07397524267435074,0.13731692731380463,-0.053231921046972275,-0.015546208247542381,-0.08616034686565399,0.06071682274341583,-0.08503936976194382,0.062302228063344955,-0.00021318215294741094,0.06219155713915825,0.12893089652061462,-0.059107810258865356,-0.019435860216617584,-0.06481681764125824,-0.062499307096004486,-0.11962780356407166,-0.18997131288051605,0.042604170739650726,0.06825696676969528,0.09909975528717041,0.145921528339386,-0.06486104428768158,0.05847185477614403,-0.029307233169674873,-0.02263372577726841,0.04042147472500801,-0.04821145161986351,-0.07135903835296631,0.09048562496900558,-0.004944435320794582,-0.17268766462802887,0.006009583827108145,0.1232617124915123,-0.03204470872879028,0.057994116097688675,0.06597977131605148,0.06296629458665848,0.06834034621715546,-0.10207074880599976,-0.029288562014698982,0.018335184082388878,0.05593220889568329,-0.008220728486776352,0.03051869571208954,-0.061130765825510025,0.10714719444513321,-0.06757193803787231,-0.05622018873691559,0.07718779146671295,0.006485440768301487,-0.023136110976338387,0.07478079944849014,-0.028890090063214302,-0.005615886300802231,-0.043250907212495804,0.03760082274675369,-0.1047569289803505,0.02483353205025196,0.00664337957277894,0.09733403474092484,0.08352067321538925,-0.06806906312704086,-0.021508021280169487,-0.06092269346117973,-0.053728025406599045,-0.12279332429170609,-0.10010673850774765,0.0867663323879242,0.0881829783320427,0.08549673855304718,0.1558191180229187,-0.16236381232738495,0.05293533205986023,-0.025322727859020233,-0.008573262952268124,0.018219580873847008,0.03349825367331505,-0.09327004849910736,0.1274217963218689,-0.02057458460330963,-0.09931886941194534,-0.05070650577545166,0.1274760663509369,-0.004120476543903351,0.03465393930673599,0.006368055008351803,0.05885615199804306,-0.023627078160643578,-0.0778212621808052,0.005124684888869524,-0.02741289883852005,0.01714484766125679,-0.038219477981328964,0.05991073325276375,-0.06296223402023315,0.07591099292039871,-0.09952516108751297,-0.07136772572994232,0.06256017088890076,-0.015769628807902336,-0.04308649152517319,-0.013264013454318047,-0.062021274119615555,-0.09039750695228577,-0.018818654119968414,0.07804844528436661,-0.03993526101112366,-0.0018818894168362021,0.01977464370429516,0.1455586552619934,0.09119178354740143,-0.023649178445339203,-0.04972975701093674,-0.09771806746721268,-0.0757363885641098,-0.07414033263921738,-0.15947702527046204,0.028323786333203316,0.11855701357126236,0.048633988946676254,0.17026233673095703,-0.08240485191345215,0.022097807377576828,-0.026293762028217316,-0.014951523393392563,-0.06682109832763672,-0.015012159943580627,-0.08184798806905746,0.11718784272670746,-0.010504798963665962,-0.13418924808502197,-0.04406113550066948,0.09285949915647507,-0.08615425229072571,0.07790584117174149,0.035787418484687805,0.040610767900943756,-0.05301331728696823,0.0026117379311472178,0.0590047761797905,0.015613029710948467,0.0534488745033741,-0.02924101985991001,0.03654447942972183,-0.0913412868976593,0.08463851362466812,-0.12076866626739502,-0.09105407446622849,0.08991323411464691,0.04707636311650276,-0.05947928503155708,0.03207850828766823,-0.07537583261728287,-0.012802688404917717,-0.027901666238904,0.09647569805383682,-0.045552171766757965,-0.034180060029029846,0.036490458995103836,0.09610465914011002,0.1019434854388237,-0.029938753694295883,-0.027906302362680435,-0.04267997294664383,-0.011304826475679874,-0.0646355152130127,-0.1114158108830452,0.012748291715979576,0.10697004199028015,0.05004604160785675,0.16498149931430817,0.017789270728826523,0.0641598179936409,-0.03255888447165489,0.030414875596761703,-0.0357406884431839,-0.09242000430822372,-0.12715241312980652,0.10855033248662949,-0.005558138247579336,-0.12662261724472046,0.03421030193567276,0.023701390251517296,-0.05673859268426895,0.11692319065332413,0.047542937099933624,0.005886782426387072,-0.024159757420420647,-0.07087920606136322,0.04313191398978233,0.056324560195207596,0.0789540633559227,-0.01295414287596941,0.05683736130595207,-0.0712621659040451,0.07902441918849945,-0.1304132342338562,-0.11764148622751236,0.060269735753536224,0.026215704157948494,0.002647320507094264,0.032441675662994385,-0.10903404653072357,-0.05407925322651863,0.02651342935860157,0.023245535790920258,-0.07875371724367142,-0.04248684272170067,0.0005535794771276414,0.1481829732656479,0.05393138527870178,-0.036983124911785126,-0.028565406799316406,-0.07352793216705322,-0.022010143846273422,-0.0577736422419548,-0.15192395448684692,0.006861476227641106,0.0528968907892704,0.03059864044189453,0.11545132845640182,-0.01730070821940899,0.0859934389591217,-0.029239477589726448,0.0359988696873188,-0.007651091553270817,-0.025363963097333908,-0.07724180072546005,0.10908778756856918,-0.0936175063252449,-0.10460659861564636,0.02301883138716221,0.05857694521546364,-0.0669063851237297,0.08582216501235962,-0.003753130557015538,0.040969621390104294,-0.04312282055616379,-0.07487161457538605,0.023515574634075165,0.028000444173812866,0.07566536217927933,-0.019986657425761223,0.03754357993602753,-0.04549548402428627,0.11803381890058517,-0.12293215095996857,-0.13811537623405457,0.06726415455341339,0.04546433314681053,0.021023951470851898,0.05173646658658981,-0.07443966716527939,-0.12040223926305771,0.019754590466618538,0.05166127160191536,0.027639171108603477,-0.017834097146987915,-0.021250341087579727,0.06903205066919327,0.08823711425065994,-0.02416331321001053,-0.020412180572748184,-0.04340172931551933,-0.04244103655219078,-0.07926669716835022,-0.16279236972332,0.050531379878520966,0.1114790216088295,0.028524791821837425,0.13905705511569977,-0.07694114744663239,0.07199718058109283,-0.00479677552357316,-0.01431918516755104,-0.03592770919203758,-0.021347256377339363,-0.017857110127806664,0.08953097462654114,-0.11523055285215378,-0.14119423925876617,0.016008025035262108,0.08246610313653946,-0.07820698618888855,0.04806848615407944,-0.029980354011058807,0.11842073500156403,-0.005988502409309149,-0.052864011377096176,0.015908559784293175,-0.00998792052268982,0.06894244998693466,-0.04947439208626747,0.025131428614258766,-0.024454770609736443,0.050240613520145416,-0.09905030578374863,-0.09906318783760071,0.049224331974983215,0.011989766731858253,-0.00742833549156785,0.07949261367321014,-0.03934553265571594,-0.05371154844760895,0.02458779327571392,0.006468243431299925,-0.05913885682821274,-0.029092226177453995,0.013419609516859055,0.0919596254825592,0.05806754529476166,-0.0018194180447608232,-0.03560454770922661,-0.006944751366972923,-0.02937619574368,-0.0904056653380394,-0.12214759737253189,0.0317467637360096,0.04178037494421005,0.04445981979370117,0.12858907878398895,-0.054099515080451965,0.06455259025096893,0.03186964988708496,-0.05299525707960129,-0.03595200181007385,-0.021293774247169495,-0.008730699308216572,0.08776142448186874,-0.10654671490192413,-0.11792227625846863,0.03549429401755333,0.08355662226676941,-0.013072519563138485,0.049809541553258896,-0.12953448295593262,0.08428201824426651,0.027599995955824852,-0.03244505822658539,-0.004677799064666033,0.01015916932374239,0.07817523926496506,-0.003407055279240012,0.04786616191267967,-0.04761457443237305,0.03798867389559746,-0.07038845866918564,-0.09579461067914963,0.08028664439916611,-0.02319972962141037,0.0045023951679468155,0.044194333255290985,-0.035466138273477554,-0.026367412880063057,-0.01951574720442295,0.015587270259857178,-0.10251528024673462,-0.0069903177209198475,-0.023840980604290962,0.08252421021461487,0.05373980477452278,-0.06152185797691345,0.021022764965891838,-0.039684318006038666,-0.03833601251244545,-0.14297311007976532,-0.13653923571109772,0.030579624697566032,0.05750543624162674,0.06297458708286285,0.11771228164434433,0.014975323341786861,0.021104631945490837,0.04224240779876709,-0.03954793140292168,-0.029172386974096298,-0.06378333270549774,-0.02465265989303589,0.12829269468784332,-0.055082064121961594,-0.1019701287150383,0.07007866352796555,0.10457254201173782,0.03486601635813713,0.04531034454703331,-0.15716750919818878,0.05175166577100754,-0.011247663758695126,-0.08879318833351135,0.07233641296625137,0.0222321730107069,0.06798233836889267,0.033445969223976135,0.05404815077781677,-0.03545552119612694,0.08467984199523926,-0.13349227607250214,-0.09523717314004898,0.028638048097491264,0.030961375683546066,-0.07210438698530197,0.1084921658039093,-0.03306540474295616,0.003317439230158925,-0.03237581253051758,-0.027207456529140472,-0.05267813429236412,-0.023251181468367577,-0.015794064849615097,0.1070813536643982,0.07400765269994736,-0.08321303129196167,-0.042145986109972,-0.06842248886823654,-0.02402757853269577,-0.09282205253839493,-0.07034438848495483,0.03040454350411892,0.12637542188167572,0.08392040431499481,0.1299075335264206,0.018943175673484802,-0.0098786111921072,-0.044320810586214066,-0.007399847265332937,-0.008150691166520119,-0.04250038415193558,-0.0663926899433136,0.11058168113231659,-0.09517601132392883,-0.15841889381408691,0.07285536825656891,0.06224052980542183,-0.047567058354616165,0.08783918619155884,-0.11967429518699646,0.09477179497480392,0.028949033468961716,-0.04197673127055168,0.006766935344785452,0.025142168626189232,0.07323500514030457,-0.027297552675008774,0.026391565799713135,-0.077311672270298,0.07049049437046051,-0.10965006053447723,-0.10116042196750641,0.050518251955509186,0.003232932183891535,-0.07489583641290665,0.12942928075790405,-0.019222689792513847,-0.003724595531821251,-0.028516273945569992,0.049005478620529175,-0.03237393870949745,-0.05714726448059082,-0.05517706274986267,0.07522256672382355,0.07831820845603943,-0.04130963608622551,-0.04681781306862831,-0.040688712149858475,-0.04315369203686714,-0.1462583839893341,-0.10733214765787125,0.02970723807811737,0.07833286374807358,0.0908893421292305,0.06266342848539352,-0.009678280912339687,-0.018954019993543625,0.0025602676905691624,-0.00923659186810255,-0.015977386385202408,0.03525792807340622,-0.01954774558544159,0.140352264046669,-0.10216794908046722,-0.12905600666999817,0.05045272782444954,0.024129562079906464,-0.021269014105200768,0.08226328343153,-0.06972219794988632,0.038559529930353165,-0.027471188455820084,-0.07081402838230133,0.0006377566023729742,-0.01035650447010994,0.07942338287830353,0.011173071339726448,0.09509040415287018,-0.04317010939121246,0.03763694688677788,-0.08511913567781448,-0.1207604706287384,0.07455827295780182,-0.012041416950523853,-0.06948807835578918,0.0841890275478363,-0.06590235978364944,-0.019792355597019196,-0.05809401348233223,0.04743597283959389,-0.0330146923661232,0.01327974908053875,-0.031044337898492813,0.05124926194548607,0.11299984157085419,-0.03563112020492554,-0.0508962906897068,-0.012169405817985535,-0.04709115996956825,-0.16422738134860992,-0.10502433776855469,0.0541713647544384,0.10280534625053406,0.09635026752948761,0.10356495529413223,-0.05431048199534416,-0.0015839729458093643,0.010917775332927704,0.004687066189944744,-0.05290411785244942,0.01678955741226673,-0.07489190995693207,0.1419386863708496,-0.07271173596382141,-0.10286204516887665,0.02049178071320057,0.04616578295826912,0.07155804336071014,0.07268806546926498,-0.13304461538791656,-0.004153584595769644,0.028029246255755424,-0.0061822934076189995,-0.013743424788117409,-0.0023360042832791805,0.09164539724588394,-0.034367743879556656,0.07013076543807983,-0.05065235123038292,0.027286933735013008,-0.09805428236722946,-0.06336191296577454,0.05993985757231712,0.006749913562089205,-0.08448465913534164,0.0694938451051712,-0.12658461928367615,0.0001742740860208869,-0.05758032947778702,-0.007512116804718971,-0.004357845056802034,-0.014703212305903435,-0.02118275687098503,0.05315755307674408,0.08041036128997803,-0.030712340027093887,-0.047874633222818375,-0.07624108344316483,-0.05554995685815811,-0.12400750070810318,-0.1622738242149353,0.047990214079618454,0.11082733422517776,0.07141408324241638,0.13022175431251526,-0.0823034793138504,0.06184445321559906,0.03636243939399719,-0.014931502752006054,-0.04532908648252487,-0.04819672554731369,-0.10028678923845291,0.12227169424295425,-0.07137767970561981,-0.06377007067203522,0.022690214216709137,0.04903402924537659,0.034303244203329086,0.08412856608629227,-0.08771384507417679,0.029887299984693527,0.010799151845276356,-0.0344647541642189,-0.04361247643828392,0.03689207881689072,0.0448225699365139,-0.05225584656000137,0.06956475973129272,-0.08443906903266907,0.04460848867893219,-0.08724329620599747,-0.10437428951263428,0.09847165644168854,-0.008452062495052814,-0.02412508800625801,0.039769574999809265,-0.05531609058380127,0.025499679148197174,-0.00902385450899601,-0.021238036453723907,-0.032791443169116974,-0.015028269030153751,-0.015518193133175373,0.015903975814580917,0.10640518367290497,-0.06070532649755478,-0.03054743818938732,-0.09858423471450806,-0.047421034425497055,-0.15059983730316162,-0.16043123602867126,0.08622745424509048,0.0975290983915329,0.08735013008117676,0.1222359836101532,-0.10224331170320511,0.06915169954299927,-0.028391264379024506,0.019403953105211258,-0.02405332215130329,-0.025912143290042877,-0.0991942510008812,0.125972718000412,-0.04551178216934204,-0.06709717959165573,-0.009190494194626808,0.0709248036146164,-0.003441646695137024,0.011766140349209309,-0.05902140215039253,0.0700458511710167,0.03488444536924362,-0.03382008522748947,-0.046334944665431976,0.00999719463288784,0.04721652716398239,-0.0005905431462451816,0.11168336868286133,-0.03603960573673248,0.0718509629368782,-0.06419790536165237,-0.1072121411561966,0.062022145837545395,-0.03882809728384018,0.002902711508795619,0.03331315889954567,-0.11150329560041428,0.0316874124109745,-0.0552220344543457,0.022173264995217323,-0.03504246100783348,0.029702598229050636,0.05443444475531578,0.02209576778113842,0.11084786057472229,-0.07770522683858871,-0.08375271409749985,-0.1332915872335434,-0.07611772418022156,-0.13467572629451752,-0.21455086767673492,0.032837409526109695,0.14266365766525269,0.09502361714839935,0.11225221306085587,-0.07083965837955475,0.05766920745372772,-0.013538774102926254,-0.036469317972660065,0.0025003624614328146,-0.03675023838877678,-0.05723899230360985,0.11698350310325623,-0.00992652215063572,-0.0849255621433258,-0.10889678448438644,-0.010480770841240883,-0.004200381692498922,-0.01321466639637947,-0.11110056191682816,0.07546217739582062,0.045942019671201706,0.01405075192451477,0.037008434534072876,0.0365881472826004,0.06065826490521431,-0.036641430109739304,0.120429128408432,-0.0928921103477478,0.03057619370520115,-0.06614993512630463,-0.07075049728155136,0.05259626358747482,-0.0470094233751297,0.003807082073763013,0.0804310068488121,-0.13501733541488647,0.00015482993330806494,-0.007237846497446299,-0.036235224455595016,0.00886719860136509,0.026004837825894356,-0.011023296974599361,0.06925983726978302,0.0853835940361023,-0.03667214512825012,-0.04974473640322685,-0.0973963588476181,-0.04833438619971275,-0.14549298584461212,-0.18481771647930145,0.014778505079448223,0.11883745342493057,0.17017434537410736,0.1076439842581749,-0.04812413454055786,0.07492682337760925,0.005123680457472801,-0.03672097250819206,-0.09389413148164749,-0.004981332458555698,-0.14161397516727448,0.1369350105524063,0.0409136600792408,-0.061422381550073624,-0.07811057567596436,0.017448756843805313,0.007737590931355953,0.03486349806189537,-0.16516222059726715,0.13492444157600403,-0.027047716081142426,0.03131120279431343,0.08165333420038223,-0.014511827379465103,0.04672464728355408,-0.04620325192809105,0.07312276214361191,-0.07339392602443695,0.008382303640246391,-0.06044357642531395,-0.07367543876171112,0.07770129293203354,-0.04144710302352905,-0.04371969774365425,0.030826808884739876,-0.06041276827454567,0.08333727717399597,-0.02584094926714897,-0.08985583484172821,0.019361546263098717,-0.009746056981384754,0.01743106171488762,0.07058921456336975,0.09446815401315689,-0.03445156663656235,-0.06091655045747757,-0.12057105451822281,-0.09630139172077179,-0.09457550197839737,-0.20506225526332855,-0.0013507689582183957,0.09522344917058945,0.1691008359193802,0.11103743314743042,-0.020826006308197975,0.1253800094127655,0.01917559839785099,-0.030211227014660835,-0.06450139731168747,-0.03498101606965065,-0.10814733803272247,0.08147194236516953,-0.07796984165906906,-0.1256418526172638,0.009763765148818493,0.13682763278484344,0.01868661865592003,-0.03324095159769058,-0.13413700461387634,0.1650991290807724,-0.03837414085865021,-0.005822345148772001,0.019960468634963036,-0.026707570999860764,0.007192518096417189,-0.030026530846953392,0.08750614523887634,-0.060687482357025146,-0.00040755211375653744,-0.03567599877715111,-0.06346235424280167,0.10653061419725418,-0.004015510901808739,-0.06493443250656128,0.0479825995862484,0.0062728142365813255,0.07393267005681992,-0.0636930763721466,-0.09695303440093994,-0.017459431663155556,-0.0008797806804068387,0.041707392781972885,0.10453295707702637,0.05480306223034859,0.038558851927518845,-0.043389514088630676,-0.1780652105808258,-0.0721537172794342,-0.09336202591657639,-0.18108391761779785,0.054441120475530624,0.10336308926343918,0.14305154979228973,0.04857718199491501,-0.0255397018045187,0.11475752294063568,0.011778553016483784,-0.020436568185687065,-0.0076148114167153835,-0.050114136189222336,-0.07471737265586853,0.12780888378620148,-0.0810466930270195,-0.11652583628892899,-0.005995322950184345,0.1318359673023224,-0.006400950253009796,-0.010498231276869774,-0.10443862527608871,0.13210153579711914,0.06658648699522018,0.031132157891988754,-0.017676854506134987,-0.0010833680862560868,0.022709276527166367,0.03780003637075424,0.12182475626468658,-0.052967749536037445,0.003941252361983061,-0.04999689757823944,-0.058409810066223145,0.08355098217725754,-0.07347659766674042,-0.07323312014341354,0.014154798351228237,-0.04052548483014107,0.02052837423980236,-0.0569259449839592,-0.028919486328959465,-0.027835175395011902,0.006250487174838781,0.048585232347249985,0.0636558085680008,0.09111145883798599,0.0064239464700222015,-0.06021486967802048,-0.148435577750206,-0.13109071552753448,-0.09730743616819382,-0.1892954707145691,0.022145096212625504,0.1000903770327568,0.1577252596616745,0.1281876564025879,-0.07649299502372742,0.059665847569704056,-0.06137131154537201,0.0034669621381908655,0.006420623045414686,-0.048304080963134766,-0.051519788801670074,0.10933417081832886,-0.0493454672396183,-0.11801052838563919,-0.03838920593261719,0.11575023084878922,-0.018687158823013306,-0.019005585461854935,-0.11738612502813339,0.13262145221233368,0.11247182637453079,-0.0023926924914121628,0.029100818559527397,-0.013737820088863373,-0.02064243145287037,-0.020245643332600594,0.09608738869428635,-0.09606630355119705,0.03076901100575924,-0.004418645985424519,-0.08765901625156403,0.0874980092048645,-0.044995054602622986,-0.0991293340921402,0.0474134124815464,-0.05420997738838196,-0.027932601049542427,-0.04850572720170021,-0.02815328724682331,0.03350888937711716,0.016320690512657166,0.0408010371029377,0.0992695689201355,0.11478430777788162,0.010070147924125195,-0.09938627481460571,-0.1689033806324005,-0.17562858760356903,-0.10292727500200272,-0.1985992044210434,0.056082889437675476,0.11834337562322617,0.215706005692482,0.18387015163898468,-0.07775730639696121,0.0026131297927349806,-0.054756589233875275,0.03199083358049393,-0.024489134550094604,-0.05197980999946594,-0.054192498326301575,0.04975643381476402,-0.037397097796201706,-0.054635629057884216,-0.11541453748941422,0.037531379610300064,-0.1057942733168602,-0.06407468020915985,-0.10598716139793396,0.14820076525211334,0.05617635324597359,0.062094684690237045,0.017803873866796494,0.003429641481488943,0.00859908014535904,-0.006445263046771288,0.08351758122444153,-0.09714734554290771,0.024764059111475945,0.005751338321715593,-0.04953823983669281,0.09029650688171387,-0.02938084490597248,-0.03246910125017166,0.060473255813121796,-0.02322503551840782,-0.08219954371452332,-0.05014991760253906,-0.10897766053676605,0.04786962270736694,-0.0031611528247594833,0.0671728178858757,0.07862932980060577,0.12086416780948639,0.014297470450401306,-0.0849863737821579,-0.10181283205747604,-0.17697347700595856,-0.11086096614599228,-0.20186249911785126,0.06037341058254242,0.14629273116588593,0.18885888159275055,0.12906241416931152,-0.03902992233633995,0.06747879832983017,-0.0017051511676982045,-0.003353261621668935,0.027772361412644386,-0.10428699105978012,-0.04105382040143013,0.1041707918047905,-0.026317069306969643,-0.018625155091285706,-0.12416636198759079,0.10025455802679062,-0.0804688110947609,0.018454724922776222,-0.09818600118160248,0.11531789600849152,0.022140592336654663,0.01727878302335739,-0.0042504300363361835,-0.007950861938297749,0.003987799398601055,0.04165325686335564,0.07306074351072311,-0.06837970018386841,0.0029423378873616457,-0.013745187781751156,-0.07567999511957169,0.1187966912984848,-0.03814733400940895,-0.06738584488630295,0.02784210443496704,-0.009349419735372066,-0.037756092846393585,-0.03266742452979088,-0.07425905764102936,0.062462225556373596,0.03863805904984474,0.09454749524593353,0.05846647173166275,0.16290205717086792,-0.02035883441567421,-0.13513651490211487,-0.15144875645637512,-0.20189833641052246,-0.0984819233417511,-0.2173326313495636,0.11576149612665176,0.14008797705173492,0.2673693895339966,0.16972389817237854,-0.07122673094272614,0.05376064032316208,-0.02828078903257847,-0.04950522258877754,-0.025235500186681747,-0.13604892790317535,-0.02634810097515583,0.10763205587863922,-0.04484507441520691,-0.02847633883357048,-0.208760067820549,0.14694243669509888,-0.1101285070180893,0.011200512759387493,-0.09294899553060532,0.13273392617702484,0.08353888988494873,0.09979593008756638,0.015149463899433613,-0.01413736492395401,-0.059603311121463776,0.02762182056903839,0.0683065727353096,-0.07551327347755432,-0.014176423661410809,-0.011321560479700565,-0.05317200720310211,0.1486879587173462,-0.03353160619735718,0.12759508192539215,-0.10868117958307266,-0.046341683715581894,-0.12306298315525055,-0.22811734676361084,-0.15821553766727448,-0.11078591644763947,0.02889259345829487,0.30471357703208923,0.1978754997253418,-0.04568672180175781,0.061979081481695175,-0.16340309381484985,-0.07511641830205917,-0.025472205132246017,-0.017894208431243896,-0.032689351588487625,0.131406769156456,-0.07003334909677505,0.25409090518951416,-0.010146492160856724,0.0889141634106636,-0.04193524271249771,0.009227931499481201,0.13315752148628235,0.057516973465681076,-0.0416824109852314,0.023824630305171013,-0.13264311850070953,-0.06675875186920166,-0.061635490506887436,-0.07591386139392853,0.038995929062366486,0.021233554929494858,0.07433917373418808,0.038677241653203964,0.13774047791957855,0.015425004065036774,-0.04515000805258751,-0.03953099995851517,0.1471102386713028,-0.05487137660384178,0.03413814306259155,-0.008093705400824547,-0.13738970458507538,-0.13473300635814667,-0.06821255385875702,-0.07449350506067276,0.19070890545845032,0.11801861226558685,0.03684154152870178,-0.030001908540725708,0.02276879921555519,-0.11942249536514282,-0.1503976285457611,-0.09720683097839355,-0.028964797034859657,0.03242594376206398,0.13573096692562103,0.07715431600809097,0.026077283546328545,-0.07598529011011124,0.007528251968324184,0.007319460157305002,-0.11263836920261383,0.034861933439970016,0.03421734273433685,0.049476027488708496,0.011985509656369686,0.07485640048980713,-0.010760091245174408,-0.09324074536561966,0.22678351402282715,0.1620650589466095,0.2913796901702881,0.13901056349277496,0.100002720952034,-0.21788835525512695,-0.20590654015541077,-0.4506533145904541,0.036334842443466187,-0.019744373857975006,-0.018492262810468674,-0.07437239587306976,-0.09739846736192703,-0.08596549183130264,-0.053927332162857056,-0.011819406412541866,0.11615816503763199,0.05724972113966942,-0.09279143810272217,0.024946104735136032,0.14321118593215942,0.19685745239257812,0.1723790466785431,0.22254838049411774,0.19571270048618317,-0.2110580950975418,-0.18698503077030182,-0.3670560419559479,-0.03182297572493553,0.07556216418743134,-0.026533063501119614,-0.07973303645849228,-0.06338004767894745,-0.1410662978887558,-0.04290961101651192,0.028818462044000626,0.05704355984926224,0.1384894698858261,-0.040633611381053925,-0.06837710738182068,0.03193018212914467,0.02855628915131092,-0.073276087641716,0.049539752304553986,0.06514094769954681,-0.018138395622372627,-0.15381532907485962,0.05548781901597977,0.0006042619934305549,-0.023848505690693855,0.07473492622375488,0.07924260199069977,0.11675435304641724,0.13891786336898804,-0.02971728704869747,-0.07265979796648026,-0.0001991614408325404,-0.21466299891471863,0.03718769550323486,0.06862077862024307,-0.03287644684314728,-0.08108408749103546,-0.027341216802597046,-0.0915646106004715,-0.09304394572973251,0.0027145948261022568,0.14691460132598877,0.08891602605581284,-0.08929958194494247,-0.07925961911678314,0.1495332568883896,0.13655726611614227,0.006446674931794405,0.03106968104839325,0.15822146832942963,-0.13961626589298248,-0.039369698613882065,-0.22587881982326508,0.005343156401067972,0.002884160727262497,0.04064370319247246,-0.0727364644408226,0.0014310467522591352,-0.1341559886932373,-0.009953725151717663,0.00021735903283115476,0.03918123245239258,0.11222851276397705,-0.055457547307014465,-0.04186326637864113,0.031169964000582695,0.05399481579661369,-0.004699093755334616,0.0030334126204252243,0.07313475757837296,-0.0019315072568133473,-0.16297705471515656,0.04496963694691658,0.009853587485849857,-0.010888987220823765,0.030129848048090935,0.1002144142985344,0.10840121656656265,0.1331978440284729,0.038061462342739105,-0.06883834302425385,0.002894890960305929,-0.18532735109329224,0.0713915154337883,0.006135077215731144,-0.050550851970911026,-0.09865523874759674,-0.0018535093404352665,-0.07028915733098984,-0.12286209315061569,0.0036398612428456545,0.10564922541379929,0.056376829743385315,-0.028806326910853386,-0.06504901498556137,0.09713765978813171,0.14967337250709534,-0.026641754433512688,0.045994892716407776,0.1038961410522461,-0.15465421974658966,-0.02405780553817749,-0.16753101348876953,-0.0032952986657619476,0.06846639513969421,-0.0075895595364272594,-0.004855018109083176,-0.060342129319906235,-0.10266183316707611,-0.06846237927675247,0.032202620059251785,0.047043442726135254,0.09488929808139801,-0.030297929421067238,-0.0514766164124012,0.05174713954329491,0.008930124342441559,-0.0037862020544707775,0.05955367907881737,0.07344672828912735,0.002921896055340767,-0.1633121371269226,0.016551155596971512,0.025491666048765182,-0.0006254432955756783,0.048046670854091644,0.046700168401002884,0.10765626281499863,0.118985116481781,0.05195087939500809,-0.08003275841474533,-0.0679478868842125,-0.20480220019817352,0.03557857871055603,0.07230785489082336,-0.08599568158388138,-0.023658163845539093,0.027404015883803368,-0.07857727259397507,-0.048144564032554626,0.006620840169489384,0.06568492203950882,0.07873909920454025,0.02324177324771881,-0.01651168055832386,0.045269791036844254,0.08845409750938416,0.04954634606838226,0.010043234564363956,0.028311531990766525,-0.10592401027679443,-0.012155500240623951,-0.16713613271713257,0.0002559226704761386,0.052654191851615906,-0.055160555988550186,-0.02139248698949814,-0.033389415591955185,-0.12832854688167572,-0.10607746988534927,0.03690295293927193,0.08139648288488388,0.12384157627820969,-0.07582304626703262,-0.006241336464881897,0.08346404135227203,-0.02104601263999939,0.002462696982547641,0.05475284531712532,0.08345615118741989,-0.01491569634526968,-0.1194448471069336,0.00556223513558507,0.04958149045705795,-0.0018139283638447523,0.04332880303263664,-0.00223093805834651,-0.0033980789594352245,0.1580112874507904,0.0559830442070961,-0.10653065145015717,-0.03582388907670975,-0.17323404550552368,0.045708637684583664,0.10096416622400284,-0.081923708319664,-0.02650950662791729,-0.038450781255960464,-0.05066867545247078,-0.10364372283220291,0.007222034502774477,0.14279477298259735,0.07721565663814545,0.04329421743750572,-0.05763262137770653,0.09986909478902817,0.029401468113064766,0.03422989323735237,0.034347761422395706,-0.007395877968519926,-0.10725835710763931,-0.0032897843047976494,-0.10652625560760498,0.021783117204904556,0.049436863511800766,-0.06572660803794861,0.02386198379099369,-0.06524509936571121,-0.13800048828125,-0.051350001245737076,0.05068144202232361,-0.0010226097656413913,0.10506089776754379,-0.07127899676561356,-4.2834719351958483e-05,0.016156503930687904,-0.05735434219241142,0.005034988280385733,0.07062743604183197,0.10628999769687653,0.02836161106824875,-0.06237110123038292,0.009241859428584576,0.050149936228990555,-0.03379025310277939,0.0013648042222484946,-0.002071489579975605,-0.013955943286418915,0.14853139221668243,0.06457110494375229,-0.05025215074419975,0.008205871097743511,-0.14623340964317322,0.01918167434632778,0.1110164150595665,-0.11192842572927475,-0.03882352262735367,-0.07401277869939804,-0.012036279775202274,-0.05661815404891968,0.009411953389644623,0.13766621053218842,0.07552866637706757,0.05700784921646118,-0.01471977960318327,0.04056885093450546,0.02827291563153267,0.01676877960562706,0.05379954352974892,0.016663357615470886,-0.07040983438491821,-0.040002357214689255,-0.11080872267484665,0.0081164026632905,0.008320316672325134,-0.05291011184453964,-0.02007257752120495,-0.016102001070976257,-0.07595756649971008,0.007911086082458496,-0.06476309150457382,0.030242109671235085,0.14308294653892517,-0.05645105242729187,-0.03414285555481911,0.02042287588119507,-0.03002890944480896,0.06095553934574127,0.046851448714733124,0.11351029574871063,0.013138584792613983,-0.054255176335573196,-0.03246072307229042,0.021490296348929405,0.03056478314101696,0.024696290493011475,0.007479834370315075,-0.04979080706834793,0.11957888305187225,0.02461148053407669,0.016963159665465355,0.040931716561317444,-0.11303746700286865,0.06340441852807999,0.0895054042339325,-0.091071717441082,-0.040722835808992386,-0.060317594558000565,-0.07396616041660309,-0.005482017528265715,0.02456827089190483,0.10047537088394165,0.08061946928501129,-0.009374723769724369,0.020275745540857315,0.0648917481303215,0.005789389368146658,-0.004020171705633402,0.04736869037151337,0.006997123826295137,-0.06387727707624435,-0.0076871151104569435,-0.06915860623121262,-0.0024812945630401373,0.06049080565571785,-0.05857633799314499,0.042545147240161896,0.0015621993225067854,-0.09393760561943054,-0.0364014208316803,0.003586565377190709,0.02258417382836342,0.02508530020713806,-0.04726911336183548,-0.05601367726922035,0.01880797930061817,-0.027017977088689804,0.036595508456230164,0.0011691659456118941,0.05349617451429367,0.03948596119880676,-0.04420978203415871,0.004743326921015978,-0.00022487709065899253,-0.026131121441721916,-0.006879076361656189,-0.01743096485733986,-0.034881722182035446,0.10579225420951843,-0.0037505091167986393,-0.03361058980226517,-0.007070666644722223,-0.06708621233701706,0.05362275615334511,0.023808356374502182,-0.09899289906024933,0.008750585839152336,-0.06657245010137558,-0.0429963618516922,-0.06660690903663635,0.01767399162054062,0.04620417580008507,0.09001461416482925,-0.027873845770955086,0.04060516878962517,0.031985048204660416,-0.014835790731012821,-0.0009281861130148172,0.03001803532242775,0.019645150750875473,-0.06893069297075272,-0.08301422744989395,-0.07098861038684845,0.017455333843827248,0.059568580240011215,-0.014073743484914303,-0.013002162799239159,-0.034973204135894775,-0.059039633721113205,-0.08146017789840698,0.00909651443362236,0.03465777635574341,0.05793406814336777,-0.03671548515558243,-0.06918346881866455,0.002582717454060912,-0.02677428349852562,0.08305394649505615,-0.012338191270828247,0.04694782570004463,0.06831428408622742,-0.08411112427711487,-0.02799471653997898,-0.023260094225406647,-0.04494448006153107,0.0059233601205050945,0.05236334726214409,-0.0015091386158019304,0.13624490797519684,0.07239988446235657,-0.07133880257606506,0.032838888466358185,-0.09542331844568253,0.05554848909378052,0.03051939234137535,-0.025050519034266472,-0.01985420286655426,-0.03944569081068039,0.021171215921640396,-0.09039357304573059,0.060449983924627304,0.0634218156337738,0.03247522562742233,0.014768365770578384,-0.022956538945436478,0.07088171690702438,-0.003589024068787694,0.019484588876366615,0.05025032162666321,0.007044254336506128,-0.10052131116390228,-0.08043783158063889,-0.03639213368296623,-0.003954873885959387,0.08534582704305649,0.010903880000114441,-0.011179137974977493,-0.03269345313310623,-0.0409727469086647,-0.026606360450387,0.030914733186364174,-0.009920517913997173,0.03253922238945961,-0.03560454770922661,-0.007904041558504105,0.014140770770609379,-0.004220159258693457,0.09402833878993988,-0.04207818582653999,0.08361063152551651,0.0788479596376419,-0.07847682386636734,-0.020245643332600594,0.01401310320943594,-0.04257478564977646,0.021240897476673126,0.04002665728330612,0.04744334518909454,0.04427449777722359,0.06164783239364624,-0.12646229565143585,-0.015254157595336437,-0.06336293369531631,0.029311377555131912,0.008802752941846848,-0.05537240579724312,-0.004653223790228367,-0.01793716475367546,-0.06562548875808716,-0.015505109913647175,0.0028893991839140654,-0.0035120307002216578,0.029854921624064445,0.020322537049651146,0.011003349907696247,0.09081719070672989,0.030501751229166985,0.009379450231790543,0.05077362433075905,-0.01318501029163599,-0.13494913280010223,-0.04909290373325348,-0.05983114615082741,-0.02536114677786827,0.05856078863143921,-0.025762485340237617,-0.05895913019776344,-0.0261018555611372,-0.02169259823858738,-0.0814032256603241,0.011480236425995827,0.005498294718563557,0.028738610446453094,-0.10237006098031998,-0.06767069548368454,0.039329539984464645,-0.0034263068810105324,0.05493762716650963,-0.016172587871551514,0.060774773359298706,0.10795529931783676,-0.09551944583654404,0.02129123918712139,0.023861829191446304,-0.023945564404129982,0.005132665857672691,0.06635143607854843,0.0013846787624061108,0.0003744001151062548,0.05820117145776749,-0.10735306888818741,0.016152989119291306,-0.09024307131767273,0.027599327266216278,0.05619330331683159,-0.08636286854743958,-0.05031707137823105,-0.015182655304670334,-0.040301498025655746,-0.014821017161011696,0.09466417133808136,0.0015186573145911098,-0.0014474322088062763,-0.013494234532117844,-0.01642128825187683,0.07489171624183655,0.04297316074371338,0.017322007566690445,0.03909408301115036,-0.004061192274093628,-0.06922566145658493,-0.053873054683208466,0.0014067841693758965,0.015817824751138687,0.03171262890100479,0.02853250317275524,-0.00842212326824665,0.01017033215612173,-0.0018785801948979497,-0.0410175621509552,0.02014402113854885,-0.030155673623085022,0.10904332250356674,-0.04441903531551361,-0.06164627894759178,-0.011705108918249607,0.024666499346494675,0.021616248413920403,-0.0013957696501165628,0.07811817526817322,0.11027993261814117,-0.10129414498806,-0.011258297599852085,0.050881024450063705,0.007067231927067041,0.05869697406888008,0.023038234561681747,-0.05105972662568092,0.0074100433848798275,0.02042563632130623,-0.07496261596679688,0.03262495994567871,-0.05548158660531044,0.03817969188094139,0.05184449627995491,-0.024839160963892937,-0.0478910431265831,-0.02737044356763363,0.009013151749968529,-0.043371398001909256,0.08388690650463104,0.02328483574092388,0.030980726704001427,0.015959814190864563,-0.04006059095263481,0.061718519777059555,0.053260501474142075,-0.028638487681746483,-0.019972430542111397,0.0049948906525969505,-0.06803799420595169,-0.09120713919401169,0.05780605971813202,-0.012668879702687263,-0.022982116788625717,0.0011007863795384765,-0.088972307741642,0.022119486704468727,0.007729625795036554,-0.044005632400512695,0.015614437870681286,0.0034843264147639275,0.08406057208776474,-0.053767748177051544,-0.04069734364748001,0.024676240980625153,0.022894950583577156,0.049754660576581955,-0.014709027484059334,0.06386258453130722,0.0667162612080574,-0.05166206881403923,-0.06493653357028961,-0.001209154142998159,0.08084055781364441,0.06552870571613312,-0.0334678590297699,0.0015195152955129743,0.027175063267350197,0.016716117039322853,-0.09731976687908173,-0.021168479695916176,-0.082224041223526,0.054485540837049484,0.05850477144122124,-0.008112010546028614,-0.1059512197971344,0.016398178413510323,-0.0587165430188179,-0.04389283061027527,0.0723821297287941,0.06787175685167313,0.04302100092172623,0.02289043553173542,-0.06823651492595673,0.020276131108403206,-0.0036776424385607243,-0.02289721928536892,0.021554628387093544,-0.008204824291169643,-0.03120921365916729,-0.04741930961608887,0.04486702382564545,-0.004833269864320755,0.00409533828496933,-0.032424215227365494,-0.05537089332938194,0.00717101339250803,-0.008226102218031883,-0.050524406135082245,0.03545234724879265,-0.014067958109080791,0.08438047766685486,-0.04238717630505562,-0.017606958746910095,0.015693694353103638,0.010025293566286564,0.011222059838473797,0.007753194775432348,0.04395543783903122,0.025295531377196312,-0.02254965901374817,-0.0928410142660141,0.002866214606910944,0.060269031673669815,0.08206634223461151,0.02696290798485279,-0.02959577739238739,0.02284237928688526,0.02678990364074707,-0.11983399838209152,-0.022327816113829613,-0.10803515464067459,0.007403709460049868,0.03808104619383812,-0.07446572929620743,-0.04099012538790703,0.009513294324278831,0.0077821980230510235,-0.019667964428663254,0.036307863891124725,0.051413774490356445,0.04903845489025116,0.007214992772787809,-0.07797783613204956,0.061111509799957275,0.005687532480806112,0.02153361774981022,0.01387794315814972,-0.0009896054398268461,-0.044518809765577316,-0.015331966802477837,-0.01150211226195097,0.014367680065333843,0.0023850712459534407,-0.04675152152776718,-0.06476587057113647,0.028126081451773643,-0.04642398655414581,-0.06248508021235466,0.007873506285250187,0.028776591643691063,0.11833766102790833,-0.05587305873632431,-0.05030675604939461,0.007888020016252995,0.055878352373838425,0.03558659180998802,-0.009885412640869617,0.0015884843887761235,0.022643892094492912,-0.03970799595117569,-0.056495748460292816,0.031211934983730316,0.005527828820049763,-0.01629258319735527,0.06792780756950378,-0.013809381052851677,0.07869111746549606,0.04174567386507988,-0.0691051259636879,-0.00285191903822124,-0.09493832290172577,-0.010576014406979084,0.0484795905649662,-0.08691028505563736,-0.05338810384273529,-0.04039934650063515,-0.03774002194404602,-0.09991797804832458,0.04629579186439514,0.04949665442109108,0.09094695746898651,0.000874077551998198,-0.053346291184425354,0.04633420705795288,0.000796577543951571,-0.0297648087143898,0.003051592968404293,-0.02201266959309578,-0.0020222868770360947,0.010386296547949314,-0.008071108721196651,-0.008969789370894432,0.016996778547763824,0.015483499504625797,-0.09181606769561768,0.030478274449706078,0.032485831528902054,0.005935510154813528,0.032965198159217834,0.005560415331274271,0.08286486566066742,0.01934404857456684,-0.017820237204432487,0.0725007951259613,0.008581088855862617,0.07049383968114853,-0.03691279515624046,-0.0007179504027590156,-0.02495666965842247,-0.04609914869070053,-0.02188086323440075,0.03792581707239151,0.02338099479675293,-0.009401774033904076,0.006480874959379435,-0.059305962175130844,0.012487131170928478,0.017717141658067703,-0.03864861652255058,0.06011167913675308,-0.11676855385303497,-0.03725360706448555,0.04579903930425644,-0.08313372731208801,-0.09855587780475616,-0.011353366076946259,-0.0409599244594574,-0.033279888331890106,0.06519221514463425,0.03868744894862175,0.04098237678408623,0.05445463955402374,-0.03768346458673477,0.005173677112907171,0.0035164994187653065,-0.0002625116612762213,0.03155195713043213,-0.01095540076494217,-0.03310529142618179,-0.0019482419593259692,-0.0347694456577301,0.007438703440129757,0.00579849211499095,0.018459657207131386,-0.07705391198396683,-0.0007518216734752059,0.006030478049069643,-0.01738952100276947,0.017483582720160484,-0.009388458915054798,0.024451257660984993,-0.02567070908844471,0.015510072000324726,0.04934379830956459,-0.02991347573697567,0.08893536776304245,-0.05053054541349411,0.001242179423570633,-0.009728518314659595,-0.0845319852232933,-0.043939802795648575,0.06212117150425911,0.05993238463997841,-0.0442434698343277,-0.015743495896458626,-0.03874512016773224,0.05808856338262558,0.022604312747716904,-0.07288622111082077,0.04600450024008751,-0.05220349133014679,-0.0061075505800545216,0.12998832762241364,-0.04063139483332634,-0.09022600948810577,-0.012743440456688404,-0.07095948606729507,0.011555767618119717,0.055293969810009,0.014050191268324852,-0.016323428601026535,0.03306968882679939,-0.004560066387057304,0.04875388741493225,0.0001655767555348575,0.0007326151826418936,0.016621405258774757,-0.03137478232383728,-0.04215947538614273,0.010674405843019485,-0.03768376260995865,0.011698905378580093,-0.027554253116250038,0.02222367562353611,-0.000448238686658442,0.041620053350925446,-0.00023762337514199317,-0.037187881767749786,0.014443165622651577,-0.03324311971664429,0.08758996427059174,-0.004346799571067095,-0.02621075138449669,0.01095112320035696,0.043171994388103485,0.06391122937202454,-0.06811129301786423,0.0505976602435112,-0.003732195356860757,-0.06566613167524338,-0.009260597638785839,-0.014008352532982826,0.03783247992396355,-0.06596926599740982,-5.664501077262685e-05,-0.07193431258201599,0.04407770559191704,0.005151003133505583,-0.05107155442237854,0.023906836286187172,-0.06618054211139679,-0.07215427607297897,0.059655021876096725,-0.06684646755456924,-0.009074910543859005,-0.05021309107542038,-0.038685206323862076,-0.029870282858610153,0.04450562968850136,0.004773056600242853,0.08210695534944534,0.017628101631999016,0.019662709906697273,0.007711406797170639,-0.04995822161436081,0.026626458391547203,0.06559406965970993,-0.06582993268966675,-0.08212309330701828,-0.045774251222610474,0.0025268360041081905,-0.015547092072665691,0.01075924001634121,-0.028147488832473755,0.005579211749136448,-0.0182358268648386,-0.039204191416502,-0.06837807595729828,0.04210234433412552,-0.04115602374076843,0.09725997596979141,0.0009333599009551108,-0.06966099143028259,0.025409720838069916,0.024774471297860146,0.07770027965307236,-0.05344909429550171,0.028391091153025627,0.015420565381646156,-0.03520302474498749,0.01251573208719492,0.005936392117291689,0.040203310549259186,-8.102506399154663e-05,0.006000196095556021,-0.04758479818701744,0.03176765516400337,0.029749741777777672,-0.05433370918035507,0.04093348607420921,-0.08497539162635803,-0.02230740897357464,0.030201947316527367,-0.07743735611438751,0.0030040752608329058,0.002104457002133131,-0.10187213867902756,0.005696994252502918,0.020763741806149483,0.012735353782773018,0.06322628259658813,0.03149034455418587,-0.008690894581377506,0.040341731160879135,0.024961380288004875,0.041676003485918045,0.02958001382648945,-0.038646358996629715,-0.08752480149269104,-0.015182667411863804,0.012898917309939861,-0.04034760966897011,0.07029052078723907,0.009948505088686943,-0.030973851680755615,0.017316672950983047,-0.012363968417048454,-0.06000662222504616,0.009835362434387207,-0.038262464106082916,0.06904172897338867,-0.021842995658516884,-0.054946016520261765,0.07287105172872543,0.014039159752428532,0.10883253067731857,-0.014112696051597595,0.02163630910217762,0.014679745770990849,-0.10666346549987793,-0.032689932733774185,0.0070015848614275455,0.035693347454071045,0.03536677360534668,0.06006292626261711,-0.03145504370331764,0.0001058313500834629,-0.010697477497160435,-0.042632464319467545,0.013716931454837322,-0.0860070213675499,-0.044125430285930634,0.11648906767368317,-0.047122735530138016,-0.024455426260828972,0.005093842279165983,-0.06809154897928238,-0.06783239543437958,-0.018190516158938408,0.024628274142742157,0.06354989111423492,-0.013556974940001965,-0.004011791665107012,0.08191408962011337,0.055382538586854935,0.05798850581049919,0.023455146700143814,-0.03467053920030594,-0.04124843701720238,-0.019069965928792953,0.024971986189484596,-0.024730857461690903,0.010904448106884956,0.008908498100936413,-0.0165850967168808,0.011005240492522717,-0.05119967460632324,-0.07028353959321976,0.042089127004146576,0.007205996196717024,0.11323870718479156,-0.012230378575623035,-0.03720836341381073,0.06717830896377563,-0.0224008746445179,0.08277654647827148,-0.07209508121013641,0.00961490347981453,0.03951543942093849,-0.037283219397068024,0.0010492728324607015,0.03599853441119194,0.07961380481719971,0.056742943823337555,0.0030235894955694675,-0.005004472099244595,0.05909116566181183,0.03652730584144592,-0.10538557916879654,0.02013244666159153,-0.10017438232898712,-0.013086666353046894,0.14550012350082397,-0.02770400047302246,-0.024011196568608284,-0.03300923481583595,-0.06718554347753525,-0.07596347481012344,-0.01747536100447178,0.023064782842993736,0.08129603415727615,-0.0036245619412511587,0.019355110824108124,0.10266905277967453,0.009180287830531597,0.05026966333389282,0.04158443957567215,-0.0653621256351471,-0.09258748590946198,-0.057683855295181274,-0.057536154985427856,0.0007956217159517109,0.022121010348200798,-0.06687404960393906,-0.0192368533462286,0.016938550397753716,-0.11426509916782379,-0.004280786029994488,0.04667699709534645,-0.004416330251842737,0.04702985659241676,-0.09424954652786255,-0.0009690043516457081,0.00885260384529829,-0.01859225519001484,0.051029376685619354,-0.05090503767132759,0.015890123322606087,0.08636611700057983,-0.05238345265388489,-0.0532541386783123,0.0443628765642643,0.022048383951187134,0.07578474283218384,-0.0006099675083532929,-0.003987449686974287,0.06183822080492973,0.020755112171173096,-0.10014556348323822,0.009884336963295937,-0.061212990432977676,0.051454611122608185,0.09334321320056915,-0.09302765876054764,0.016103368252515793,0.0033870700281113386,-0.11360909789800644,-0.02657381072640419,0.004879293031990528,0.05413306877017021,0.05051396042108536,0.026254478842020035,0.007681874558329582,0.10364648699760437,0.05490749701857567,-0.015080295503139496,-0.010475032031536102,-0.008247480727732182,-0.019951334223151207,-0.013077780604362488,-0.0637945756316185,0.03223752602934837,0.04715486615896225,-0.027225665748119354,-0.004871643614023924,-0.02763264626264572,-0.06726747006177902,-0.04974048212170601,0.00316416984423995,0.004658116959035397,0.03164786472916603,-0.0672454684972763,-0.03249187022447586,0.07014737278223038,-0.022036319598555565,0.06948856264352798,0.024224666878581047,-0.03322182223200798,0.10844554752111435,-0.11201630532741547,-0.00833054631948471,-0.02356038987636566,0.012395262718200684,0.05805625766515732,0.02816084772348404,-0.057468973100185394,0.06182214990258217,0.07920647412538528,-0.12019456923007965,-0.009390085935592651,-0.0756332129240036,0.04585375636816025,0.08009230345487595,-0.1321132928133011,-0.003389278193935752,-0.02277822233736515,-0.06871366500854492,0.029029948636889458,0.06756233423948288,0.043987058103084564,0.04254390299320221,-0.0050455378368496895,0.022237224504351616,0.04410150647163391,0.06681399047374725,0.006006774492561817,-0.007893278263509274,-0.01365649327635765,-0.07284411787986755,-0.07831405848264694,-0.026239898055791855,0.022210823372006416,-0.0136500159278512,-0.0974959060549736,-0.009562734514474869,0.009720456786453724,-0.05360600724816322,-0.07136265933513641,0.06356769800186157,0.008045450784265995,0.03645792230963707,-0.04934028163552284,-0.05018703266978264,0.084110789000988,0.009443599730730057,0.0883297473192215,0.015371426939964294,-0.025336651131510735,0.07589458674192429,-0.04961312934756279,-0.04672403261065483,0.02973664179444313,-0.023642849177122116,0.05805835872888565,0.08877640217542648,-0.04272850230336189,0.011295058764517307,0.06768441945314407,-0.07194475084543228,0.015957126393914223,-0.055608224123716354,0.036623068153858185,0.04887876659631729,-0.1572897583246231,-0.055139508098363876,0.0029542329721152782,-0.10804254561662674,-0.03061726875603199,0.04712558165192604,0.0919174775481224,0.02812117710709572,0.02623056061565876,0.030443958938121796,0.04720749706029892,0.03950387239456177,0.0009374150540679693,0.030401790514588356,0.004853798542171717,-0.06713508814573288,-0.056982871145009995,-0.0843743234872818,0.015686027705669403,0.05925514176487923,-0.07006268948316574,-0.03938578441739082,0.027085404843091965,-0.11378230154514313,-0.11148743331432343,0.06217695027589798,-0.006686434615403414,0.1417841911315918,-0.09291019290685654,-0.013795116916298866,0.08501458168029785,-0.041894011199474335,0.05677160620689392,0.06488785892724991,0.021304722875356674,0.05137049779295921,-0.08121750503778458,0.023821188136935234,-0.005062647629529238,-0.007691537030041218,0.06569553911685944,0.02755958028137684,0.023374585434794426,0.03667380288243294,0.08867083489894867,-0.07099592685699463,0.018136311322450638,-0.10858975350856781,0.04822985827922821,0.03313964977860451,-0.0716707706451416,-0.0268202293664217,0.02218010276556015,-0.12976385653018951,-0.07376470416784286,0.011399457231163979,0.08535107225179672,0.1502166986465454,0.024325277656316757,-0.0038323665503412485,0.06847675889730453,0.05104455724358559,-0.04315900430083275,0.004559962544590235,-0.02667638286948204,-0.060836996883153915,-0.048405859619379044,-0.075917087495327,0.02281590923666954,0.06770059466362,0.00021866439783480018,0.007814059033989906,-0.01323737297207117,-0.10924246907234192,-0.026048321276903152,-0.020809441804885864,0.0032380004413425922,0.14173054695129395,-0.06578788161277771,-0.02285345084965229,0.026073018088936806,-0.06502828747034073,0.06032758206129074,0.07612375915050507,0.003283725818619132,-0.002567802555859089,-0.0515529103577137,0.00013301419676281512,0.010992465540766716,-0.0006529345409944654,0.05215759202837944,-0.0159666258841753,0.008164431899785995,0.09184850752353668,0.027032051235437393,-0.06838402152061462,0.0009309858432970941,-0.12584781646728516,0.00834837555885315,0.08821328729391098,-0.021216142922639847,-0.017537439242005348,-0.014489195309579372,-0.05462484061717987,-0.02760687842965126,-0.016673803329467773,0.044012781232595444,0.10934122651815414,0.03381641209125519,-0.0375974103808403,0.09222938865423203,0.03814033046364784,0.028619181364774704,-0.00015392908244393766,-0.023152265697717667,-0.01897829957306385,-0.07172052562236786,-0.08774452656507492,-0.010215453803539276,0.06879932433366776,-0.010934974066913128,-0.040645889937877655,-0.012176549062132835,-0.15206316113471985,-0.04701092466711998,-0.03843200206756592,0.022571491077542305,0.12003401666879654,-0.10629472136497498,-0.0019609250593930483,0.013297603465616703,-0.059047721326351166,0.04459057375788689,0.014489076100289822,0.07616426050662994,0.004014188423752785,-0.0777982845902443,0.04956097528338432,-0.01605962961912155,-0.030374906957149506,-0.003593606874346733,0.061985988169908524,0.04778269678354263,0.07583782821893692,0.04049164801836014,-0.020190950483083725,-0.007741383742541075,-0.07980577647686005,-0.04275047406554222,0.11410263180732727,-0.0508110411465168,-0.016146304085850716,-0.032041776925325394,-0.13846158981323242,-0.05904065817594528,0.037681300193071365,0.08686710149049759,0.10346342623233795,-0.010118505917489529,-0.012406907044351101,0.06750963628292084,0.014385074377059937,0.0374036505818367,0.04989923909306526,0.048876162618398666,-0.06136560067534447,-0.0690181702375412,-0.11006129533052444,-0.013597995974123478,0.0732421725988388,-0.01891017146408558,-0.009499356150627136,-0.04239664226770401,-0.12473392486572266,-0.06830643117427826,0.0586354099214077,0.033348213881254196,0.14801546931266785,-0.06619749218225479,-0.014901557005941868,0.026886381208896637,-0.012157010845839977,-0.006701824255287647,0.065965436398983,0.09161478281021118,0.04450320079922676,-0.12782175838947296,0.02990143746137619,0.029609832912683487,-0.028767045587301254,0.0361415334045887,0.05091045796871185,-0.004725289531052113,0.05546668916940689,0.09161613136529922,-0.031330887228250504,-0.019924916326999664,-0.08990376442670822,-0.01863921992480755,0.08697395771741867,-0.03148398548364639,0.015178598463535309,-0.053408779203891754,-0.0664382055401802,-0.11828770488500595,0.06593964248895645,0.09361538290977478,0.11990377306938171,0.011519032530486584,-0.008802014403045177,0.06751380115747452,0.05119931697845459,0.022999851033091545,0.08454716950654984,0.03486747667193413,-0.10706136375665665,-0.06177472695708275,-0.1278117448091507,-0.028139077126979828,0.06062474846839905,-0.0930074080824852,-0.04082021862268448,-0.10486959666013718,-0.08419124037027359,-0.01622907444834709,0.0679558664560318,0.04001257196068764,0.16133162379264832,-0.07564803212881088,0.035196684300899506,0.001981753157451749,0.007976260967552662,-0.04255101829767227,0.05664689838886261,0.06281465291976929,0.03567887470126152,-0.10144542157649994,0.037700384855270386,0.01928485743701458,-0.006606299430131912,0.0813320204615593,0.08249711990356445,0.08262321352958679,0.06428927928209305,0.04797497019171715,-0.06544321030378342,-0.0042738961055874825,-0.17568953335285187,0.002676625270396471,0.08675579726696014,-0.10284558683633804,-0.031379975378513336,-0.139561265707016,-0.07860702276229858,-0.0652359277009964,0.11064460873603821,0.10703904926776886,0.12175828963518143,-0.024038687348365784,-0.008067311719059944,0.10120827704668045,0.11426519602537155,-0.0038923523388803005,0.06293781846761703,0.11134357750415802,-0.18156784772872925,-0.10677148401737213,-0.1659097671508789,-2.2708663891535252e-05,0.04005445912480354,-0.04926461726427078,-0.11439095437526703,-0.040603477507829666,-0.1355072408914566,0.007506581488996744,0.025269044563174248,0.07757389545440674,0.1715974658727646,-0.09114668518304825,0.027453981339931488,-0.019821234047412872,0.03174847736954689,-0.047097887843847275,0.06651908159255981,0.08206526935100555,0.062048912048339844,-0.13832497596740723,0.055199891328811646,0.00905551016330719,-0.004429562948644161,0.05873531475663185,0.12590338289737701,0.08971311897039413,0.12991252541542053,0.004195569548755884,-0.05244075506925583,0.0063203200697898865,-0.16082020103931427,0.06605681031942368,0.09075905382633209,-0.1337956339120865,-0.08151189237833023,-0.07968905568122864,-0.043528854846954346,-0.08259549736976624,0.1274619698524475,0.14519259333610535,0.13273338973522186,-0.0958709716796875,-0.031862929463386536,0.14381976425647736,0.1290961354970932,-0.018716340884566307,0.05121469870209694,0.14561426639556885,-0.1218438446521759,-0.06114937365055084,-0.20594938099384308,-0.021200034767389297,0.06115353852510452,-0.0012109698727726936,-0.06423459947109222,-0.0706787034869194,-0.17140021920204163,-0.008742494508624077,0.031013259664177895,0.060269877314567566,0.1462133377790451,-0.06060253456234932,0.025481069460511208,0.015036191791296005,0.015636440366506577,-0.009904376231133938,0.052703384310007095,0.027224501594901085,0.08193930983543396,-0.1780714988708496,0.060341961681842804,0.017325960099697113,-0.0353146530687809,0.08928152918815613,0.06418958306312561,0.11279404163360596,0.08670815080404282,0.03958652541041374,-0.05329170823097229,-0.03472121059894562,-0.19438908994197845,0.10857097059488297,0.06314397603273392,-0.09334953129291534,-0.1546751707792282,-0.05429241433739662,-0.0664316937327385,-0.1561412811279297,0.09379684925079346,0.13839340209960938,0.16024146974086761,-0.1058352142572403,-0.042825594544410706,0.14955002069473267,0.10984686762094498,0.05205944925546646,0.036006391048431396,0.18352244794368744,-0.11779298633337021,-0.07130982726812363,-0.31346407532691956,0.11746103316545486,-0.07796300202608109,-0.024404264986515045,-0.13999788463115692,-0.14025568962097168,-0.11656279116868973,-0.09489008784294128,0.04405076056718826,0.2439621239900589,0.19601237773895264,-0.09710265696048737,-0.12792149186134338,0.09098418056964874,0.030806822702288628,-0.06429125368595123,0.002347387606278062,0.09614408761262894,-0.0011394161265343428,-0.010045577771961689,0.0525427907705307,-0.14128971099853516,-0.0504826121032238,0.12100210040807724,0.11380770057439804,0.18626247346401215,0.047346219420433044,0.2485656887292862,-0.09795325249433517,-0.12663736939430237,-0.2272249460220337,0.0240542721003294,-0.027393199503421783,-0.09169759601354599,-0.18467244505882263,-0.11769885569810867,-0.13505974411964417,-0.06263870000839233,0.11072490364313126,0.2712075114250183,0.175717294216156,0.1148727610707283,0.06939972192049026,0.04956869035959244,-0.008536518551409245,0.02136928401887417,-0.11755009740591049,0.01847812719643116,-0.09962987899780273,-0.011506941169500351,-0.04848526418209076,0.04406624659895897,-0.05854801833629608,0.05240190029144287,-0.0579414926469326,-0.11250587552785873,-0.04013501852750778,-0.017926974222064018,0.024117769673466682,0.09220163524150848,0.05742494761943817,0.013178594410419464,-0.09657610207796097,0.015025547705590725,0.004308378789573908,-0.09744060039520264,0.0652165338397026,0.0018395434599369764,0.0443216897547245,-0.00667995261028409,0.09163585305213928,-0.037115469574928284,-0.12873579561710358,0.17783968150615692,0.13036958873271942,0.20095597207546234,0.07626908272504807,0.08831019699573517,-0.14825400710105896,-0.08337744325399399,-0.3068063259124756,0.08893179893493652,-0.01865489035844803,0.0029477011412382126,-0.04132566228508949,-0.09808051586151123,-0.009483260102570057,-0.037924062460660934,-0.029807843267917633,0.11706061661243439,0.07066202908754349,-0.16573284566402435,-0.021678948774933815,0.06928037852048874,0.18923859298229218,0.10171182453632355,0.19631852209568024,0.1390090435743332,-0.12939682602882385,-0.19818994402885437,-0.24900028109550476,-0.01732795499265194,0.02782752923667431,-0.018877586349844933,-0.07634337246417999,-0.01437401119619608,-0.11980699747800827,0.0071215503849089146,-0.020640244707465172,0.015916557982563972,0.10201086103916168,0.004647429101169109,-0.06420782208442688,-0.03881222382187843,0.035981904715299606,-0.07137199491262436,0.014040006324648857,0.10353787243366241,0.02777387946844101,-0.07622725516557693,0.05660393089056015,0.030707629397511482,-0.008738215081393719,0.049069348722696304,0.041676558554172516,0.05569154769182205,0.11429648846387863,-0.0030621541664004326,-0.07089871913194656,0.02519785426557064,-0.11415191739797592,0.028924452140927315,0.10440702736377716,-0.04226640984416008,-0.11935129761695862,-0.07255145907402039,-0.0632241889834404,-0.06308972090482712,0.06237786263227463,0.11078783124685287,0.025141509249806404,-0.09616032242774963,-0.047359466552734375,0.056275393813848495,0.08614154905080795,-0.05290254205465317,0.07291236519813538,0.1027616560459137,-0.06450767070055008,-0.008879527449607849,-0.06370817124843597,-0.03756171837449074,-0.011334124021232128,0.05531379580497742,-0.022111665457487106,-0.034637413918972015,-0.07930219173431396,-0.03607383370399475,0.00802801363170147,0.05182649567723274,0.07029496133327484,-0.0369616262614727,-0.03837694227695465,0.0031068548560142517,0.026175329461693764,0.007501187268644571,0.021387925371527672,0.07015609741210938,0.042212072759866714,-0.04409448429942131,0.0574212446808815,0.024308953434228897,0.014670714735984802,0.019733769819140434,0.040971431881189346,0.0393684096634388,0.08946928381919861,0.017762506380677223,-0.04591087996959686,-0.02534896321594715,-0.10782104730606079,0.045994509011507034,0.0697687640786171,-0.030120739713311195,-0.047029804438352585,-0.002350799273699522,-0.07193124294281006,-0.01577378809452057,0.07032188773155212,0.09623409807682037,-0.04851605370640755,-0.014748220331966877,-0.0012095618294551969,0.04689977318048477,0.06109965965151787,0.0040834578685462475,0.04400677978992462,0.047362715005874634,-0.052771374583244324,0.013402262702584267,-0.09981558471918106,-0.0005732784629799426,0.005379680078476667,0.04194158688187599,-0.01178065687417984,-0.01608680933713913,-0.10891878604888916,0.05279708281159401,-0.016969503834843636,-0.03570396825671196,0.072989322245121,-0.040244210511446,-0.03546059504151344,-0.02627013623714447,0.0032558159437030554,-0.006903992034494877,-0.00782601349055767,0.06008042395114899,-0.004861190915107727,-0.024190381169319153,0.020465129986405373,0.0128751490265131,0.031408607959747314,0.013980776071548462,0.01616966724395752,-0.006569630932062864,0.059597693383693695,0.040866918861866,-0.05984378606081009,0.01998027227818966,-0.11006418615579605,0.016830822452902794,0.07920664548873901,-0.006307544652372599,-0.06174140051007271,0.0867740586400032,-0.057164229452610016,-0.004372787196189165,-0.08741246908903122,0.04248500615358353,-0.04464541748166084,0.003941537346690893,0.010944734327495098,0.016424816101789474,0.03317767754197121,-0.025171689689159393,0.027127299457788467,0.01249883882701397,-0.12434892356395721,-0.00031508918618783355,-0.0782833844423294,-0.03293735533952713,0.05448952317237854,-0.03060983307659626,0.026696505025029182,-0.027971381321549416,-0.13168135285377502,-0.016393324360251427,-0.0068971854634583,-0.02275707758963108,0.09984855353832245,-0.05465926229953766,0.0037991986609995365,0.010109975934028625,0.009059563279151917,0.027365894988179207,0.01980379782617092,0.04891075938940048,0.03046484664082527,-0.056894198060035706,-0.0429726243019104,0.04085713252425194,0.0011914377100765705,0.022607797756791115,-0.011928260326385498,0.003368017030879855,0.08423547446727753,0.030300265178084373,-0.03850368782877922,-0.01708167791366577,-0.06699313223361969,0.009003967046737671,0.06948516517877579,0.012841153889894485,-0.059440743178129196,0.04920174181461334,0.00988510437309742,-0.05205876752734184,-0.03580637276172638,0.043373774737119675,-0.056337371468544006,0.004613980650901794,0.030491085723042488,0.04033757373690605,-0.013484005816280842,-0.04451405256986618,-0.009795247577130795,0.004622907843440771,-0.049929555505514145,-0.0164744071662426,-0.005466827191412449,0.017594845965504646,0.04422585666179657,-0.027547664940357208,0.011238249950110912,-0.0038349544629454613,-0.09385833889245987,-0.022856663912534714,-0.042706724256277084,0.02010250650346279,0.06462455540895462,-0.05210072919726372,-0.025098767131567,0.01304049976170063,0.015800824388861656,0.0397554486989975,0.036896537989377975,0.021727703511714935,0.058122068643569946,-0.02689174935221672,-0.0380496010184288,0.022905852645635605,0.0037975141312927008,0.011954320594668388,0.000901688588783145,-0.024138353765010834,0.09580355882644653,-0.01359145063906908,0.015165820717811584,0.02811090461909771,-0.045945070683956146,0.043643396347761154,0.04426544904708862,-0.03215164691209793,-0.04394814744591713,-0.008976098150014877,0.014998550526797771,-0.0941048189997673,0.042979560792446136,-0.011683384887874126,-0.029828697443008423,0.059676263481378555,0.0207704845815897,-0.009306322783231735,-0.016863204538822174,-0.015747448429465294,0.022679656744003296,0.02335612289607525,-0.058951303362846375,0.031070955097675323,-0.035094477236270905,-0.015346760861575603,0.050382889807224274,-0.05995894968509674,0.002020588144659996,-0.02997458167374134,-0.06023578345775604,0.036292944103479385,-0.07924742996692657,0.02176506444811821,0.08334023505449295,-0.04448358714580536,-0.01250677090138197,0.01732950657606125,-0.016155963763594627,0.04509485512971878,-0.03287341073155403,0.05118973180651665,0.0654534325003624,-0.002985322382301092,-0.021337265148758888,0.010885458439588547,0.007279583718627691,-0.030267324298620224,-0.0156987514346838,-0.038294851779937744,0.02204802818596363,-0.025955231860280037,0.0525360032916069,0.0010342104360461235,-0.05194097012281418,0.007636657450348139,0.032957084476947784,-0.0685976892709732,-0.044286713004112244,-0.0029721539467573166,-0.03277306631207466,-0.0337066613137722,0.014950675889849663,0.050556860864162445,0.029826082289218903,0.03324747085571289,-0.002541027031838894,0.00516953831538558,-0.030545217916369438,-0.025740426033735275,0.02666538953781128,0.022079119458794594,0.03095681592822075,-0.0500606931746006,-0.04613078385591507,-0.00909588672220707,0.08341096341609955,-0.0070701660588383675,0.05010676383972168,8.150128996931016e-05,-0.061537932604551315,-0.02636435069143772,-0.02139870449900627,0.0031731203198432922,0.04890946298837662,-0.02794317528605461,-0.04454226791858673,0.019150029867887497,-0.004055502358824015,0.05469647794961929,-0.03524557128548622,0.032761767506599426,0.0010923980735242367,0.03570442646741867,0.0004587901057675481,0.044992901384830475,-0.05184930935502052,-0.006698912940919399,0.014156552031636238,-0.007676349952816963,0.0862974226474762,0.011609628796577454,-0.0371101088821888,0.036686014384031296,-0.04098962992429733,0.009977354668080807,0.020913774147629738,-0.021986600011587143,-0.018493585288524628,-0.0035426155664026737,-0.01669408194720745,-0.06716635078191757,0.0024967778008431196,0.04244150221347809,0.03137151896953583,0.02037542313337326,-0.0022605827543884516,0.04394092410802841,-0.04242474213242531,-0.03766908869147301,0.05490139499306679,-0.012717705219984055,-0.020203346386551857,-0.006988623645156622,0.0028884829953312874,0.047371964901685715,0.07692382484674454,0.03531075641512871,-0.03510962426662445,-0.07745480537414551,0.005901841446757317,-0.03509167954325676,0.024871869012713432,0.001991471741348505,0.041987430304288864,-0.04648010805249214,-0.06461448967456818,0.023208623751997948,-0.06858880072832108,0.004990620072931051,0.02289735898375511,-0.006077480502426624,0.050870779901742935,-0.004282631911337376,-0.0017183138988912106,0.045292481780052185,-0.07769922912120819,0.00927816890180111,0.051160845905542374,0.02791508473455906,0.034201476722955704,-0.03651314228773117,-0.04581303149461746,0.02849537879228592,0.012745365500450134,0.03618437424302101,-0.017009858042001724,-0.0036019515246152878,-0.0007603098638355732,-0.04088868200778961,0.016651293262839317,-0.07349472492933273,0.03358808904886246,0.022480668500065804,-0.026921745389699936,0.0658523291349411,0.01047793123871088,0.0773761197924614,0.003691718215122819,0.021007170900702477,0.0039802007377147675,0.0010387861402705312,-0.08961041271686554,-0.052086710929870605,-0.04682881385087967,0.044509388506412506,0.045565567910671234,0.019860362634062767,-0.0016176010249182582,0.018498744815587997,-0.007101080846041441,-0.04873167723417282,-0.009976997971534729,0.03021635301411152,0.0019670729525387287,-0.03883100673556328,-0.002257708925753832,-0.01112991850823164,-0.001728887902572751,0.03482185676693916,-0.03236328437924385,0.044949520379304886,0.06773301213979721,-0.005574965383857489,0.005855254828929901,-0.01131338533014059,-0.011422837153077126,-0.009934945963323116,0.016703667119145393,0.004901580978184938,0.020791836082935333,0.018526222556829453,-0.010342334397137165,-0.004166432190686464,-0.019947964698076248,-0.009232129901647568,0.007559388410300016,-0.021233489736914635,-0.0011265604989603162,0.0034510460682213306,-0.010169501416385174,0.02234817110002041,0.06517170369625092,-0.013828540220856667,-0.047066714614629745,0.05708559602499008,0.004292067140340805,0.07212507724761963,-0.008146649226546288,-0.010800251737236977,0.025607775896787643,-0.03574798256158829,-0.0644230768084526,-0.05653871223330498,-0.07055091112852097,0.012327222153544426,0.02537255734205246,-0.04806510731577873,-0.006994782015681267,-0.039783816784620285,0.02608579397201538,-0.046369392424821854,0.026618916541337967,0.030177108943462372,0.02128208987414837,-0.04834011569619179,-0.02542669139802456,0.019255759194493294,-0.013980806805193424,0.05129668489098549,-0.001378036686219275,0.033856868743896484,0.08328451961278915,0.011480365879833698,-0.04432719200849533,0.0010318915592506528,-0.004277476109564304,0.01768103986978531,0.03626258298754692,0.028914799913764,0.0311279296875,-0.017349641770124435,-0.042323432862758636,0.01324575673788786,-0.03718765079975128,-0.013195681385695934,0.039622701704502106,-0.029375940561294556,-0.02216397412121296,0.025809993967413902,0.036102913320064545,0.0009272442548535764,0.052977655082941055,-0.06495079398155212,-0.042420122772455215,0.007878143340349197,-0.040320031344890594,0.08228250592947006,-0.014130378141999245,0.017893394455313683,0.009585549123585224,-0.029360627755522728,-0.058163825422525406,-0.030079444870352745,0.020110616460442543,0.014618130400776863,-0.012663738802075386,-0.041746266186237335,-0.06544176489114761,-0.042307011783123016,0.044838983565568924,0.025261783972382545,0.04659111797809601,0.003449847223237157,0.039937302470207214,-0.06835862994194031,-0.01796228624880314,-0.01095275767147541,0.0037397730629891157,0.025464599952101707,0.03309447318315506,0.009417420253157616,0.029646053910255432,-0.019975798204541206,-0.03222213312983513,0.03941885754466057,0.035053640604019165,0.03930094838142395,-0.03404398262500763,0.007899533025920391,0.04133346676826477,-0.039793048053979874,-0.006655385717749596,-0.0070314412005245686,-0.01647217944264412,-0.021346071735024452,0.009732399135828018,-0.00858399923890829,-0.04871073737740517,0.0181120652705431,0.10557752102613449,-0.0339222215116024,0.0464756041765213,-0.06113315373659134,-0.06877950578927994,0.013540764339268208,-0.06596971303224564,0.014114756137132645,-0.019961057230830193,0.042554426938295364,0.04612481966614723,-0.04797140508890152,0.01504099927842617,-0.03949376568198204,-0.007603365462273359,0.013692009262740612,-0.02225651405751705,-0.03031396120786667,-0.06901532411575317,-0.014531946741044521,0.023700624704360962,0.0012630106648430228,0.001151372562162578,-0.024486416950821877,0.03382917121052742,-0.03679580241441727,-0.0411669947206974,0.018856320530176163,0.06126889958977699,0.035279177129268646,-0.016363542526960373,0.0671803206205368,0.03787555173039436,-0.0485379621386528,-0.05582058057188988,0.035175517201423645,0.03869400918483734,-0.011692610569298267,-0.04792780801653862,-0.019128210842609406,-0.0034736525267362595,0.02322920225560665,-0.02375979721546173,0.023474663496017456,-0.007202554494142532,-0.018636144697666168,-0.0712585374712944,0.02615622989833355,0.02021830715239048,-0.02621770091354847,0.06436558812856674,0.032406438142061234,0.0009433820960111916,0.009497941471636295,-0.0525006428360939,0.026314575225114822,-0.0234899390488863,0.0247484277933836,-0.013593996874988079,0.04345904663205147,0.06860211491584778,-0.017802182585000992,-0.01105803158134222,-0.00789189524948597,-0.020549729466438293,0.010354014113545418,-0.004559947177767754,-0.04225775972008705,-0.054266899824142456,0.042138051241636276,0.039509184658527374,0.01839570142328739,-0.010827010497450829,-0.004324027337133884,-0.011987902224063873,-0.014782097190618515,-0.029979482293128967,0.02088874578475952,0.042994704097509384,0.030205046758055687,-0.043262820690870285,-0.00956047885119915,0.05736422538757324,-0.02835269458591938,-0.019504770636558533,0.009971563704311848,0.046157535165548325,-0.01940874569118023,0.052522022277116776,-0.04322457313537598,0.01851803995668888,0.014865057542920113,-0.028860006481409073,0.015247544273734093,-0.02500394731760025,-0.01636994443833828,-0.06341145932674408,-0.001563287922181189,0.05209491401910782,-0.0009708254365250468,0.05565444007515907,0.046663857996463776,0.0052866702899336815,-0.0323183573782444,-0.0015268494607880712,-0.017813188955187798,-0.058388080447912216,-0.03882499039173126,-0.00544054014608264,0.012402886524796486,0.02676393836736679,0.04771044850349426,0.0029988340102136135,-0.018998412415385246,0.010970358736813068,0.019803723320364952,-0.055773988366127014,-0.020698310807347298,-0.07109613716602325,0.006445586681365967,0.04262787848711014,-0.044348206371068954,0.045132458209991455,-0.04055580869317055,0.005474700126796961,-0.018593033775687218,0.0054867202416062355,0.04336614906787872,0.025795139372348785,0.06449326127767563,-0.07505634427070618,-0.024060212075710297,-0.023915382102131844,0.0011070460313931108,0.05251453444361687,0.02886139042675495,-0.01288016326725483,-0.0008828886784613132,0.06002157926559448,-0.06185770407319069,0.001287898514419794,-0.0001236448297277093,-0.05648127943277359,0.04333597049117088,0.0077215926721692085,-0.007917866110801697,-0.039067961275577545,-0.02662649005651474,0.008150369860231876,-0.03596659377217293,0.06703252345323563,-0.05409369617700577,0.0021921261213719845,-0.04029490426182747,0.05663890764117241,0.03053845465183258,-0.09785037487745285,0.012842603027820587,0.01887390948832035,0.02342076413333416,0.022619862109422684,0.0014403549721464515,0.022904925048351288,0.015131031163036823,0.008979189209640026,0.011746123433113098,-0.01577131636440754,0.020414572209119797,-0.04842642322182655,0.045293085277080536,0.05623241886496544,0.014694576151669025,-0.049279648810625076,-0.008281929418444633,0.05532455071806908,0.023209236562252045,0.018990792334079742,0.008814148604869843,-0.03531072661280632,0.06192449480295181,-0.062479548156261444,0.028993012383580208,-0.0367405042052269,-0.03725174069404602,-0.00785528402775526,0.023625053465366364,0.030363265424966812,-0.052607230842113495,0.009161129593849182,-0.06953071057796478,-0.0034640487283468246,-0.025272294878959656,-0.042742837220430374,0.07201079279184341,-0.0032325629144906998,0.0011189294746145606,0.02801542356610298,-0.049378640949726105,-0.030987581238150597,-0.013373455964028835,0.014209466055035591,-0.03793984651565552,-0.05215069651603699,0.0007660188130103052,0.07715333998203278,0.005633560009300709,-0.038622189313173294,-0.04630160331726074,-0.0021440163254737854,0.024077540263533592,-0.024805309250950813,-0.01332454290241003,0.01905488595366478,0.05119006708264351,0.02664337120950222,0.038880933076143265,-0.046244245022535324,0.025568801909685135,-0.051361363381147385,0.011636566370725632,0.0843920037150383,0.005908046383410692,-0.012539902701973915,-0.022420108318328857,-0.041941169649362564,0.017567576840519905,0.00827818177640438,0.006699611898511648,-0.0337020605802536,0.06520209461450577,-0.06495131552219391,0.05914792791008949,0.020364321768283844,-0.014158409088850021,-0.025156166404485703,0.021049559116363525,0.04869263619184494,-0.06063394248485565,-0.03251050040125847,-0.05882950872182846,-0.02998233214020729,-0.00679817097261548,-0.007076760288327932,0.03227267414331436,-0.030444709584116936,-0.06611600518226624,0.04232541844248772,-0.032944440841674805,0.008099714294075966,0.0007775338599458337,0.019330983981490135,0.046973392367362976,0.033050425350666046,0.011283601634204388,0.004934696014970541,0.004933376330882311,-0.03602217882871628,0.0021530617959797382,-0.05811653286218643,0.008441752754151821,0.01996176689863205,-0.038438376039266586,0.009485027752816677,0.008476597256958485,0.039607975631952286,0.009422332979738712,0.01760740950703621,-0.0016874975990504026,-0.037321608513593674,-0.040604010224342346,0.07194621860980988,-0.026740489527583122,-0.0038943435065448284,-0.012643277645111084,0.01907268911600113,0.056254129856824875,-0.01356483157724142,0.023495445027947426,0.05980133265256882,0.08469350636005402,-0.09249209612607956,0.03505275025963783,0.042630620300769806,-0.03229643031954765,0.04235326126217842,0.0006521182367578149,0.029766371473670006,-0.040825050324201584,-0.017079751938581467,-0.06261685490608215,-0.021113267168402672,0.018134847283363342,-0.03420179337263107,0.018146773800253868,-0.03456692770123482,-0.060295991599559784,0.025353040546178818,0.014478006400167942,0.026354162022471428,-0.045952580869197845,-0.026065507903695107,0.03934590145945549,0.029774663969874382,-0.031379975378513336,0.028186550363898277,0.018092898651957512,0.03642216697335243,-0.010310817509889603,-0.039634279906749725,-0.0010890865232795477,-0.02032698504626751,-0.04003969952464104,-0.05422019958496094,-0.032829590141773224,-0.006755538284778595,0.004015919286757708,0.03669286519289017,0.029215820133686066,-0.031655453145504,-0.007232965901494026,0.007175861392170191,0.02716837264597416,-0.025205114856362343,0.01499924249947071,0.04141530767083168,0.022706827148795128,-0.06022879481315613,0.006835511885583401,0.06278537213802338,0.08979226648807526,-0.12910041213035583,-0.009702347218990326,0.04002825915813446,-0.011183886788785458,0.060284655541181564,0.03249491751194,0.07359570264816284,0.0015469141071662307,0.045237306505441666,-0.03988538309931755,0.029930496588349342,0.008978717029094696,-0.07296913117170334,0.03198377788066864,0.019162951037287712,-0.05699310824275017,0.013189076445996761,-0.008763881400227547,0.003532399656251073,0.048574745655059814,0.02006421610713005,-0.006506584119051695,-0.00597289577126503,-0.024660423398017883,0.10169129073619843,0.052495379000902176,0.016314556822180748,0.004520642105489969,0.01672288216650486,0.05064311623573303,0.014595000073313713,-0.04155174270272255,-0.08166595548391342,-0.024565985426306725,0.05523895099759102,-0.02446797862648964,0.05144879221916199,-0.026941191405057907,-0.009552933275699615,-0.008798102848231792,0.04981696233153343,-0.001348666613921523,0.0016088316915556788,-0.026019250974059105,-0.0018884370801970363,0.05415130779147148,-0.018728097900748253,0.03407518193125725,0.012387998402118683,0.09978701919317245,-0.04220385476946831,-0.03755754977464676,0.022580409422516823,-0.009699446149170399,-0.023108182474970818,0.019042236730456352,0.03356410190463066,0.016618000343441963,0.024433083832263947,-0.049131058156490326,0.025597931817173958,-0.00911508034914732,-0.08234298229217529,-0.003318052738904953,0.028283031657338142,-0.06157100945711136,0.04391547664999962,0.0014358565676957369,-0.0060754138976335526,0.02053637057542801,0.014271626248955727,-0.0520208440721035,-0.04706113785505295,-0.07381514459848404,0.09094657003879547,0.05399952083826065,-0.030211206525564194,0.023763010278344154,0.06007590889930725,0.025073129683732986,0.00237298384308815,-0.10379815846681595,-0.0530521459877491,-0.02741539478302002,0.053433824330568314,-0.015717925503849983,0.034890737384557724,0.03216756135225296,-0.03333955630660057,0.014788803644478321,0.014386666938662529,-0.024562690407037735,0.0004771794192492962,0.000904937565792352,0.05966909974813461,-0.01407577097415924,-0.025028444826602936,0.044868353754282,0.0315302312374115,0.07834506034851074,-0.0726325511932373,-0.005325363017618656,0.10462473332881927,0.0035442195367068052,0.015339940786361694,0.008083258755505085,0.030587870627641678,0.0707087516784668,-0.015954425558447838,-0.026432136073708534,-0.04372825846076012,-0.02008221298456192,-0.04036743938922882,0.03219829499721527,-0.024228880181908607,-0.08442531526088715,0.01311633549630642,0.023343628272414207,-0.04540087655186653,0.018571654334664345,-0.1002594530582428,-0.03676576912403107,0.02813754230737686,-0.002649611560627818,0.07358616590499878,0.010776239447295666,-0.019489865750074387,0.020524336025118828,0.0024031365755945444,0.017715241760015488,0.0026399020571261644,-0.043780162930488586,0.0332355834543705,0.012847726233303547,0.007433346938341856,0.023482851684093475,0.05496649444103241,-0.034806735813617706,-0.0036368058063089848,0.04984486103057861,-0.0472307987511158,-0.02943941205739975,-0.008177455514669418,0.03649493679404259,0.059961266815662384,-0.02239108458161354,-0.025082891806960106,-0.028872324153780937,0.009396295994520187,0.009100334718823433,-0.040284164249897,-0.055043306201696396,0.11792010813951492,-0.037284404039382935,0.017439765855669975,-0.008722025901079178,-0.0009715610067360103,0.018248509615659714,0.0012439851416274905,-0.06706012785434723,-0.010800408199429512,0.0005287716630846262,-0.01578884944319725,-0.02573098987340927,-0.0069048283621668816,-0.000497517001349479,0.031056437641382217,-0.0321691520512104,0.00027728278655558825,0.042209193110466,-0.10980352014303207,-0.02844575047492981,0.05340603366494179,-0.02118830569088459,0.07427512854337692,0.012577499262988567,-0.03353276476264,0.051910366863012314,0.0015531240496784449,-0.034526970237493515,-0.04811648279428482,-0.010683666914701462,0.06897112727165222,-0.03769833222031593,-0.011571518145501614,0.01404789462685585,0.038721513003110886,-0.013981654308736324,0.024295950308442116,-0.030654767528176308,-0.014759890735149384,-0.012315379455685616,0.007716241292655468,-0.026058541610836983,0.02823437750339508,-0.01757213845849037,-0.02044225111603737,-0.026891089975833893,0.0031077219173312187,0.05074150115251541,0.005959799513220787,0.01083372626453638,0.12691250443458557,-0.034052591770887375,-0.0356740765273571,0.01480008289217949,0.020776204764842987,-0.019678324460983276,0.025796223431825638,-0.06291808933019638,0.010711953043937683,0.03000577725470066,-0.012593270279467106,0.0203854963183403,0.018505359068512917,0.0324600487947464,0.04292817786335945,-0.0357414186000824,-0.025325991213321686,-0.03311143070459366,-0.0072279986925423145,0.007028679829090834,0.01884477026760578,-0.015014260075986385,0.07829244434833527,-0.005393946543335915,-0.03292643278837204,0.03134691342711449,-0.006661355495452881,-0.014711323194205761,-0.028593609109520912,-0.027659336104989052,0.016459716483950615,-0.02929142490029335,0.046544674783945084,0.04589402303099632,-0.023535754531621933,-0.08836967498064041,-0.02564610168337822,0.039840009063482285,-0.07136381417512894,-0.025694753974676132,0.031042857095599174,0.03542979061603546,0.022167140617966652,0.009914902038872242,-0.03430209308862686,0.039801690727472305,-0.004650186747312546,-0.00669353362172842,0.03335103392601013,0.0014763877261430025,0.006450352258980274,0.03720204532146454,-0.06041938439011574,0.022429537028074265,0.007772330194711685,0.027829457074403763,0.021694764494895935,-0.010292792692780495,-0.03400592505931854,0.006700462661683559,-0.027320820838212967,0.0029490890447050333,-0.009531986899673939,0.014782514423131943,0.04102350398898125,-0.06558285653591156,-0.05110618844628334,0.025588668882846832,-0.0407223105430603,-0.015899505466222763,-0.01872308924794197,-0.0019365586340427399,0.002589138690382242,0.0320139043033123,0.028354017063975334,0.040036577731370926,0.035790059715509415,-0.057466406375169754,-0.03927132487297058,-0.009190111421048641,-0.03089321404695511,-0.04562553018331528,-0.014406641013920307,0.046581510454416275,0.07017398625612259,-0.05823494866490364,-0.022661946713924408,0.0016302436124533415,-0.08527540415525436,-0.043223101645708084,0.03714985027909279,0.016032585874199867,0.09022060036659241,-0.04873098433017731,-0.044512245804071426,0.032464489340782166,-0.05048073083162308,0.011889372952282429,0.02509780041873455,0.016702599823474884,0.004743690136820078,0.014939366839826107,-0.013913823291659355,0.013932396657764912,0.01807309314608574,0.05409431457519531,0.026792021468281746,0.023029683157801628,0.03200975060462952,0.06465363502502441,-0.04939112067222595,-0.016421662643551826,-0.0851331353187561,-0.01954672485589981,0.0026447304990142584,-0.03509636968374252,-0.018672440201044083,-0.013097938150167465,-0.028466608375310898,-0.060382213443517685,-0.01946191117167473,0.037057019770145416,0.07057195901870728,0.019352592527866364,0.04736227169632912,0.03218208625912666,0.042379822582006454,-0.015936551615595818,0.007428465876728296,-0.012617812491953373,-0.027991250157356262,-0.0649356096982956,-0.06080833822488785,0.010776093229651451,0.05041595920920372,0.014508218504488468,-0.017569903284311295,-0.004758549854159355,-0.03214531019330025,-0.024597812443971634,-0.05025605112314224,0.016830872744321823,0.10019589215517044,-0.008009228855371475,-0.02183420956134796,-0.014592980034649372,-0.014878613874316216,0.008567544631659985,0.01695229671895504,0.0320296548306942,-0.015024067834019661,0.0264582596719265,0.033859677612781525,0.0015929685905575752,-0.0005216700374148786,0.05518627539277077,-0.0007090509170666337,-0.02181609906256199,0.03909760341048241,-0.016891121864318848,-0.017790041863918304,0.04514022916555405,-0.061123356223106384,-0.0030894011724740267,0.0028382467571645975,-0.0187758170068264,0.0172820296138525,-0.033855512738227844,0.02048003114759922,0.005029991269111633,-0.06928499788045883,0.005624187644571066,0.039715491235256195,0.06997100263834,-0.0036726396065205336,0.0007770521915517747,0.050081443041563034,0.026856672018766403,0.029936598613858223,-0.0582321435213089,-0.03462361544370651,-0.016740163788199425,-0.0256101842969656,-0.002228429540991783,0.03543509915471077,0.026082005351781845,-0.04522643983364105,-0.0393061637878418,-0.09994328767061234,-0.0422259122133255,-0.053947508335113525,0.04691478982567787,0.09331900626420975,-0.012908466160297394,-0.008943731896579266,-0.023569725453853607,-0.007146604359149933,0.023651421070098877,0.003638234455138445,0.048167843371629715,-0.012146318331360817,-0.03410075977444649,0.04790475592017174,-0.017067814245820045,-0.013821659609675407,0.010655461810529232,-0.0012902303133159876,-0.03458808362483978,0.04777613282203674,0.05309998244047165,0.02556188404560089,0.02430560253560543,-0.05955860763788223,0.004262726288288832,0.009769875556230545,-0.00640447111800313,-0.008500436320900917,-0.012310532853007317,-0.05243938788771629,0.0031091372948139906,-0.026834659278392792,0.041825488209724426,0.08268456161022186,0.0351935550570488,-0.028256885707378387,-0.01647358573973179,-0.003808179870247841,0.014882161282002926,0.057647235691547394,-0.04415924474596977,0.0167523380368948,-0.07375949621200562,-0.01710212230682373,-0.04188624769449234,0.05333680659532547,0.03897295892238617,0.00915061216801405,-0.02942306362092495,-0.10300572961568832,-0.06445825845003128,0.04136244207620621,-0.012316226027905941,0.06707777082920074,-0.011736318469047546,-0.00039536121767014265,-0.014050304889678955,0.00150781380943954,0.028218328952789307,0.010682955384254456,0.09288207441568375,0.026197144761681557,-0.026111485436558723,-0.013779821805655956,0.047891516238451004,-0.006268160883337259,0.04755547270178795,0.01449757069349289,0.024566438049077988,0.07141304016113281,0.05395163595676422,-0.037664882838726044,-0.04772477224469185,-0.09715523570775986,-0.04596048593521118,0.03685196861624718,0.011190415360033512,0.010285512544214725,-0.026102742180228233,-0.08787767589092255,-0.07487693428993225,0.0261697918176651,0.0027647155802696943,0.06518207490444183,0.03585364297032356,-0.04328363388776779,0.011923705227673054,0.025455201044678688,0.00815759040415287,0.012965252622961998,0.0032274951227009296,-0.0666789710521698,-0.027204222977161407,-0.04940146952867508,0.02195923775434494,0.038105253130197525,-0.07628272473812103,-0.06664565950632095,-0.063641756772995,-0.05554107576608658,-0.003783297259360552,0.023650551214814186,0.0004266154719516635,0.08244233578443527,-0.06293021142482758,-0.003544207662343979,0.006595568731427193,0.004698497708886862,0.017568940296769142,0.03851179778575897,0.04132752865552902,0.021769627928733826,-0.07304134219884872,0.03905121982097626,0.01966160163283348,-0.04244130477309227,0.0499209463596344,0.02352123335003853,-0.0026041585952043533,0.06508862227201462,0.029591761529445648,0.0008484500576741993,0.006904632318764925,-0.13826091587543488,0.011076039634644985,0.08319103717803955,-0.02258789911866188,-0.0028008739463984966,-0.07864003628492355,-0.021047042682766914,-0.0491783432662487,0.05550432577729225,0.023097829893231392,0.04773160442709923,-0.02788681536912918,-0.014365523122251034,0.09114157408475876,0.07060258835554123,-0.009043276309967041,0.00970921665430069,0.05889815464615822,-0.11717987805604935,-0.017358263954520226,-0.135245218873024,-0.006403282284736633,0.03576284274458885,0.010569892823696136,-0.06962085515260696,-0.04390369728207588,-0.07844759523868561,0.03542868420481682,0.025235135108232498,0.013961667194962502,