0.32421875,0.046875,0.015625,-0.01953125,-0.07421875,0.09375,-0.0078125,-0.03515625,0.0,0.0,-0.02734375,0.046875,0.0,0.03515625,-0.0390625,0.0078125,0.0234375,0.0234375,-0.07421875,0.05859375,0.10546875,0.0546875,0.09765625,0.0,0.01171875,-0.0625,0.03515625,0.0078125,-0.09375,0.0,-0.02734375,-0.00390625,-0.171875,-0.02734375,-0.046875,0.0234375,0.0390625,-0.0546875,0.09375,-0.0625,0.1484375,-0.01171875,-0.00390625,-0.12109375,0.03125,-0.046875,0.09375,0.15625,-0.0546875,-0.04296875,0.03125,0.14453125,0.078125,-0.0390625,-0.078125,-0.0078125,0.01953125,-0.046875,0.12890625,0.00390625,-0.3515625,0.03515625,0.01171875,-0.0234375,-0.01953125,-0.12890625,-0.02734375,0.015625,0.01171875,0.19921875,0.015625,-0.07421875,-0.0546875,0.19921875,-0.0390625,-0.07421875,0.0234375,0.015625,0.0703125,0.0,0.01953125,-0.08984375,-0.1640625
0.064453125,-0.009765625,0.033203125,-0.01171875,0.0,0.064453125,-0.00390625,0.07421875,-0.01171875,0.025390625,0.009765625,0.01171875,-0.0234375,-0.013671875,0.015625,-0.083984375,-0.01171875,0.07421875,0.048828125,0.0234375,-0.0390625,0.015625,0.07421875,-0.0625,-0.01953125,-0.01171875,-0.052734375,-0.015625,-0.041015625,0.0703125,-0.01171875,0.048828125,0.033203125,0.015625,-0.04296875,-0.0078125,0.01171875,-0.001953125,0.005859375,0.015625,-0.0234375,-0.08984375,0.01953125,-0.044921875,0.076171875,-0.0546875,0.037109375,-0.029296875,-0.037109375,0.05859375,0.0390625,-0.01171875,-0.033203125,-0.052734375,-0.017578125,0.05859375,0.009765625,0.017578125,0.0,0.029296875,-0.015625,0.03125,-0.005859375,-0.029296875,0.001953125,-0.00390625,-0.02734375,-0.02734375,-0.0234375,-0.080078125,-0.017578125,-0.060546875,-0.033203125,-0.05078125,0.00390625,0.068359375,0.060546875,0.013671875,-0.00390625,0.029296875,0.068359375,0.033203125,-0.0234375,-0.03125,0.041015625,-0.021484375,-0.064453125,0.05078125,-0.033203125,-0.037109375,-0.005859375,0.00390625,-0.03125,0.0,0.0,-0.0390625,0.015625,0.013671875,-0.017578125,0.033203125,-0.041015625,0.06640625,0.03515625,-0.001953125,-0.025390625,-0.060546875,0.005859375,0.03515625,-0.0078125,-0.033203125,0.029296875,0.060546875,-0.037109375,0.015625,-0.02734375,-0.00390625,0.05078125,0.0234375,0.015625,-0.0546875,0.052734375,0.025390625,0.044921875,0.068359375,-0.0234375,0.01171875,0.0703125,-0.041015625,-0.02734375,0.00390625,0.005859375,0.048828125,-0.078125,0.033203125,0.0,0.041015625,0.052734375,0.00390625,-0.0078125,-0.052734375,0.0,0.056640625,-0.060546875,-0.044921875,0.03125,0.009765625,0.076171875,-0.017578125,-0.005859375,-0.0390625,0.03125,0.029296875,-0.033203125,0.033203125,-0.064453125,0.03125,0.05078125,0.0703125,0.0625,-0.0078125,0.0,-0.044921875,0.005859375
-1.0273438,3.8847656,-1.3046875,-0.4296875,0.89746094,-0.7841797,-1.2929688,1.7529297,-1.1992188,-0.44726562
