-0.027546826750040054,0.013916775584220886,0.028136275708675385,0.02456871047616005,0.0014401460066437721,-0.0014768880791962147,0.023158572614192963,0.013616111129522324,0.13362741470336914,0.018737833946943283,-0.02379157766699791,0.0007722498849034309,-0.11701996624469757,0.12630340456962585,-0.01862778142094612,0.019581492990255356,0.10092154145240784,0.05861702188849449,0.010256164707243443,-0.014537843875586987,0.058440715074539185,-0.012846656143665314,0.017043257132172585,-0.005816690158098936,0.014495826326310635,0.07290857285261154,0.01184462383389473,0.018289336934685707,0.005324613302946091,0.01035093329846859,-0.20452824234962463,-0.005185849033296108,0.0032348092645406723,0.006165727972984314,-0.1552889347076416,-0.010181881487369537,0.016919024288654327,-0.007861433550715446,0.009552529081702232,0.18142198026180267,-0.022778693586587906,0.00717271538451314,0.0229627788066864,-0.018264267593622208,-0.015249105170369148,0.0285065695643425,0.019463906064629555,-0.012354861944913864,-0.1020144671201706,-0.03489092364907265,0.031115887686610222,0.006737226620316505,0.01811128854751587,0.03802921622991562,0.0076415054500103,-0.0285588800907135,0.17319858074188232,0.006418672855943441,0.05528847500681877,0.08236958831548691,0.034720927476882935,-0.042619265615940094,0.009041225537657738,-0.0016020862385630608,-0.03422151133418083,0.000689496286213398,-0.0023973556235432625,0.001971899066120386,0.003848121967166662,0.05000753700733185,0.014938490465283394,0.02100907266139984,-0.026513274759054184,-0.0242982916533947,-0.006651975214481354,0.15669670701026917,-0.09392443299293518,0.1793520748615265,0.0018573662964627147,0.018779315054416656,0.0043203337118029594,-0.013413643464446068,-0.01639602705836296
-0.024118764325976372,0.049537163227796555,-0.09600448608398438,0.0383848175406456,-0.05543405935168266,0.1122894436120987,0.1594136506319046,-0.018693454563617706,-0.1640796661376953,-0.013266577385365963,0.01374409906566143,0.031190097332000732,0.03308168798685074,0.048773717135190964,-0.11526115238666534,0.06775445491075516,-0.10269748419523239,-0.11818242073059082,-0.035532839596271515,0.13092951476573944,-0.1376131922006607,-0.05693265423178673,-0.07776649296283722,0.026377923786640167,-0.09388604015111923,-0.08195650577545166,0.05114372819662094,0.06560241430997849,-0.12360990047454834,0.0832255482673645,0.09533633291721344,-0.06942728161811829,0.13562414050102234,0.12205075472593307,0.18000522255897522,-0.11307933181524277,0.08616548031568527,-0.14476297795772552,0.048553090542554855,0.04956291243433952,-0.0052331737242639065,0.12919823825359344,-0.08860065788030624,0.12261255085468292,0.049383971840143204,-0.06753560155630112,0.1710483431816101,0.12066034972667694,-0.007007925305515528,0.12846197187900543,0.07240886986255646,-0.1150360256433487,0.1330416351556778,0.13971230387687683,-0.004411269444972277,-0.06465969234704971,-0.09366174042224884,0.13842663168907166,0.09188708662986755,-0.16380363702774048,-0.1273927390575409,-0.07055176049470901,0.12570437788963318,0.008817365393042564,-0.04166003316640854,-0.011597643606364727,-0.060339685529470444,-0.007477583829313517,0.12049928307533264,-0.17792828381061554,0.14275872707366943,0.01798819750547409,-0.060881368815898895,0.10453169792890549,0.13300466537475586,-0.11558184772729874,-0.09703896939754486,0.10713621228933334,0.053993768990039825,-0.037386272102594376,0.07295355945825577,0.11210888624191284,0.06281694024801254,0.11832448840141296,-0.11574059724807739,0.1422884464263916,-0.13669827580451965,0.07033652067184448,-0.07245118916034698,0.1676488220691681,0.07322369515895844,0.12665708363056183,0.102119080722332,0.02118818461894989,0.12750758230686188,0.07098164409399033,0.008901871740818024,-0.15198898315429688,0.09652841091156006,-0.03857061639428139,-0.05091400444507599,-0.11046422272920609,0.030901256948709488,-0.15213923156261444,0.019417567178606987,-0.07192862778902054,0.10105785727500916,0.09396657347679138,-0.13834574818611145,-0.07456207275390625,-0.17637063562870026,-0.06506964564323425,0.09551481902599335,0.020544392988085747,-0.05027955397963524,0.12432609498500824,0.08554627746343613,0.06598255783319473,-0.09128952771425247,0.1355387568473816,-0.02095983736217022,-0.1835804283618927,0.07007244229316711,-0.06756780296564102,-0.06285421550273895,0.08175919204950333,0.0024344350676983595,-0.10738550126552582,-0.05776830390095711,0.09377991408109665,0.11801167577505112,0.03233291581273079,-0.012797517701983452,-0.04063686728477478,-0.09792309999465942,0.08887006342411041,-0.020533807575702667,-0.11813265085220337,-0.0076816086657345295,-0.050716109573841095,0.014030146412551403,-0.09615641832351685,-0.13417097926139832,0.008207106031477451,0.08881475031375885,-0.04656001552939415,0.021258637309074402,0.0764826312661171,0.0039219302125275135,-0.048138730227947235,-0.11735551804304123,-0.0325920544564724,-0.12317858636379242,-0.09808291494846344,-0.12993223965168,0.0047974176704883575,-0.14995670318603516,0.008066970854997635,-0.03656604140996933,0.00978678185492754,0.1445472240447998,-0.08652517199516296,0.09856845438480377
-1.2974398136138916,-0.14004966616630554,-0.5997601747512817,0.2715527415275574,0.9484070539474487,0.41315966844558716,0.2138080894947052,0.5408231616020203,-0.41930246353149414,0.8900604248046875
