-0.027446841821074486,-0.1391323208808899,-0.005331726744771004,-0.1435071974992752,-0.10663466155529022,-0.021050715819001198,-0.10830984264612198,-0.008044065907597542,0.029574081301689148,-0.03425274044275284,-0.0714118629693985,0.03400270640850067,-0.031265586614608765,0.04462890326976776,-0.14974841475486755,-0.009142166934907436,0.18375886976718903,-0.3310414254665375,-0.0033973832614719868,-0.11703573167324066,0.0780889242887497,0.0746006891131401,0.08432069420814514,-0.2290632575750351,0.2644806206226349,0.02901393361389637,-0.25264281034469604,-0.16422423720359802,0.06659385561943054,-0.09166710078716278,0.19518977403640747,0.0422709658741951,-0.008969685062766075,-0.12721417844295502,0.01819647289812565,-0.20223642885684967,0.11049352586269379,-0.03267934173345566,0.013400617986917496,0.009660569950938225,0.002689794637262821,0.023798704147338867,0.05747794359922409,0.06825777143239975,-0.012743442319333553,0.09176915138959885,-0.011545599438250065,0.0273271631449461,0.0034809913486242294,0.015261051245033741,0.036676838994026184,0.06358380615711212,-0.027659200131893158,0.25063198804855347,-0.010235186666250229,0.004880466964095831,0.002583608962595463,0.014087270013988018,-0.1685393750667572,-0.0024787879083305597,-0.3915090560913086,0.08269484341144562,0.3005408048629761,-0.16710039973258972,0.04070841521024704,-0.005865140818059444,0.0037013813853263855,-0.24853315949440002,0.05454631149768829,-0.1001758724451065,0.1221378743648529,0.1803113967180252,-0.028361940756440163,0.01127538364380598,-0.05824665725231171,-0.022049356251955032,0.12280048429965973,-0.07229101657867432,-0.0767686665058136,0.004087493754923344,0.014406213536858559,0.017152586951851845,-0.1727849543094635
-0.13935352861881256,0.18090148270130157,0.05024048313498497,0.0013920401688665152,-0.09532393515110016,0.09541209042072296,0.13155120611190796,-0.1770285665988922,-0.14148841798305511,-0.07626795768737793,0.11435718089342117,-0.05753971263766289,0.1456611454486847,-0.09183596074581146,-0.1699925661087036,0.11665405333042145,0.12257139384746552,-0.13333530724048615,0.11352379620075226,-0.08969437330961227,-0.148595929145813,-0.14440469443798065,-0.1321394145488739,-0.13145120441913605,0.048876453191041946,-0.13560128211975098,0.10902231931686401,0.11118963360786438,-0.1022053137421608,-0.17203719913959503,0.20514622330665588,-0.13708798587322235,-0.06029723212122917,-0.10332457721233368,0.08272276818752289,-0.12158344686031342,-0.1625499129295349,-0.15399876236915588,0.10220039635896683,0.11200229823589325,-0.07513377070426941,-0.04698996990919113,-0.050133008509874344,-0.08013849705457687,0.12263870984315872,0.17947329580783844,-0.10392407327890396,-0.10136756300926208,-0.16471250355243683,0.13078898191452026,-0.11971884220838547,-0.0741318017244339,0.03554876521229744,0.014634035527706146,-0.16616588830947876,-0.028518449515104294,0.15107502043247223,-0.09810575842857361,-0.10676156729459763,0.12754711508750916,0.10001616179943085,0.0601237490773201,0.08863413333892822,-0.12919119000434875,0.14095763862133026,-0.20349009335041046,-0.13647417724132538,0.022631993517279625,0.13869905471801758,-0.022970467805862427,0.02111734263598919,-0.04850919172167778,-0.15649570524692535,0.14578041434288025,0.2207820862531662,0.044928450137376785,0.055656515061855316,0.14181749522686005,-0.1642388105392456,-0.04500490054488182,-0.1427091658115387,0.10349910706281662,0.03678899630904198,-0.1557111293077469,-0.12063047289848328,-0.11541301012039185,0.0725921243429184,-0.13830147683620453,0.12506403028964996,0.13502849638462067,-0.1608741134405136,0.09087719023227692,0.16684289276599884,-0.054714299738407135,0.1615937352180481,-0.1359546035528183,-0.11912631243467331,-0.21079306304454803,0.05261468142271042,0.053813375532627106,0.03341946750879288,-0.08676696568727493,-0.13439656794071198,-0.05276301130652428,0.07798291742801666,0.06682761758565903,0.028203889727592468,0.0652657225728035,0.17613239586353302,-0.11763191223144531,0.07156189531087875,0.05965571850538254
-0.9961418509483337,-0.7421319484710693,-0.31049278378486633,0.19406786561012268,1.442211627960205,0.1720196157693863,0.6460299491882324,0.4058245122432709,-0.3694015443325043,-0.06551936268806458
