-0.421875,0.17578125,0.02734375,0.01953125,-0.03515625,0.0625,-0.37109375,0.0390625,0.05078125,-0.09765625,-0.109375,-0.0859375,0.0,-0.07421875,0.03515625,-0.0078125,-0.0078125,-0.125,-0.00390625,-0.26953125,-0.01953125,-0.07421875,-0.03125,-0.015625,0.0,-0.125,0.11328125,0.140625,0.37109375,-0.01953125,-0.2890625,-0.13671875,-0.1328125,-0.0703125,-0.0546875,0.27734375,0.0390625,-0.09765625,-0.10546875,0.3359375,-0.140625,-0.140625,0.015625,-0.01953125,-0.02734375,-0.22265625,-0.01171875,0.31640625,0.03125,0.09765625,-0.05078125,-0.08203125,0.03515625,0.21875,0.05859375,-0.09765625,0.0,-0.0234375,-0.3125,0.046875,0.0234375,-0.03515625,-0.19140625,-0.11328125,-0.05859375,0.0,0.0703125,-0.03125,-0.22265625,0.015625,-0.1328125,-0.08203125,0.10546875,0.0390625,0.1640625,-0.26953125,0.07421875,-0.18359375,0.15234375,-0.18359375,0.02734375,0.28515625,0.01953125
0.13085938,-0.115234375,-0.044921875,-0.13671875,-0.1484375,-0.1328125,0.13085938,0.02734375,-0.005859375,0.064453125,0.125,0.03515625,0.044921875,-0.05859375,-0.013671875,-0.1015625,-0.041015625,0.025390625,0.115234375,0.087890625,-0.13867188,0.11328125,-0.11328125,-0.09375,0.1171875,-0.0390625,0.009765625,0.046875,0.1328125,0.095703125,-0.095703125,0.05859375,0.052734375,0.029296875,0.11328125,-0.12890625,0.05078125,0.041015625,-0.109375,-0.115234375,-0.056640625,-0.06640625,-0.087890625,-0.111328125,-0.09375,-0.12890625,0.009765625,-0.123046875,-0.060546875,-0.119140625,-0.083984375,0.1484375,0.09375,-0.0859375,0.109375,-0.05859375,0.06640625,-0.00390625,-0.0234375,0.041015625,0.064453125,0.044921875,0.107421875,0.03515625,-0.05859375,0.044921875,0.005859375,0.060546875,0.091796875,-0.1328125,0.06640625,-0.0234375,-0.078125,-0.041015625,0.08984375,-0.08203125,-0.04296875,-0.03515625,-0.095703125,-0.056640625,0.14453125,0.044921875,-0.00390625,0.171875,-0.068359375,0.119140625,-0.1015625,0.12890625,0.10546875,-0.029296875,-0.0625,0.095703125,-0.037109375,-0.087890625,-0.060546875,-0.015625,0.046875,0.078125,0.0,0.12109375,-0.103515625,-0.076171875,0.072265625,-0.083984375,-0.0546875,0.08203125,-0.03125,-0.046875,-0.021484375,-0.12109375,-0.060546875,0.01953125,-0.09765625,0.0234375,0.044921875,0.05078125,0.021484375,0.0703125,-0.021484375,0.02734375,0.076171875,-0.072265625,-0.087890625,-0.033203125,0.0078125,-0.1328125,0.03125,-0.107421875,-0.123046875,-0.1171875,0.048828125,-0.13476562,0.05859375,-0.03515625,-0.15039062,-0.095703125,0.0859375,0.009765625,-0.025390625,0.14453125,0.080078125,0.0390625,0.09765625,-0.06640625,-0.087890625,0.111328125,0.03125,-0.0625,0.017578125,0.060546875,0.06640625,-0.15625,-0.017578125,0.083984375,0.1015625,-0.0625,-0.05859375,0.109375,-0.13476562,-0.025390625,-0.107421875,0.08203125,0.015625
-1.0097656,-0.98046875,0.055664062,0.4189453,1.9453125,0.21191406,1.1279297,0.67578125,-0.33789062,-0.049804688
