0.012104896828532219,-0.05239323526620865,0.026786793023347855,-0.21522974967956543,-0.015161048620939255,0.22830122709274292,0.014555180445313454,-0.022005870938301086,0.17707104980945587,0.008091108873486519,-0.03855657950043678,0.005303889978677034,-0.010115275159478188,-0.015279733575880527,-0.012500502169132233,0.013608274981379509,-0.036435507237911224,0.0032261619344353676,0.040046874433755875,0.0008124440792016685,-0.013927564024925232,0.030098315328359604,0.015022365376353264,0.004121286328881979,-0.016339678317308426,0.00990590825676918,0.03093569353222847,-0.046269144862890244,-0.17737384140491486,0.012469500303268433,0.011473610065877438,0.12979355454444885,0.021492717787623405,0.03424529731273651,-0.11130788922309875,0.03319677710533142,0.06802339851856232,-0.002100937534123659,-0.04587803781032562,-0.03933068364858627,0.10700610280036926,-0.09781188517808914,-0.12516936659812927,-0.011246387846767902,-0.21450093388557434,0.011364173144102097,0.01118437573313713,0.007812075316905975,0.023389916867017746,0.003102603368461132,0.06368963420391083,0.013639934360980988,-0.17861652374267578,0.012001391500234604,0.20412757992744446,0.12214480340480804,-0.020215008407831192,0.016166530549526215,0.00424584373831749,-0.30824097990989685,-0.03063131310045719,0.006303483620285988,-0.22470667958259583,0.02673066034913063,-0.026515889912843704,0.001498587429523468,-0.17562900483608246,0.016588475555181503,-0.018492169678211212,0.01107193436473608,-0.018731169402599335,0.0019248828757554293,0.025862013921141624,0.013448788784444332,-0.04266496002674103,-0.1643199920654297,-0.01831258088350296,-0.003331995802000165,-0.05855989828705788,0.0633242130279541,0.03831613063812256,-0.010701713152229786,-0.11270347237586975
-0.09376946091651917,0.14561721682548523,-0.13358761370182037,0.1065620705485344,0.17693667113780975,-0.10693564265966415,0.14319244027137756,-0.08953120559453964,-0.030668148770928383,0.04415511339902878,-0.1412464827299118,0.06912945955991745,-0.10688088834285736,0.06350961327552795,0.10582287609577179,0.15516436100006104,-0.12544085085391998,0.16927646100521088,-0.14306165277957916,0.1745842844247818,-0.06112208589911461,-0.04248819127678871,-0.06506224721670151,-0.020686790347099304,0.010912797413766384,-0.017855681478977203,-0.04605422541499138,-0.15509337186813354,0.16863368451595306,0.10377728193998337,0.0976388230919838,-0.08917909115552902,-0.07467819005250931,-0.07964639365673065,-0.020381039008498192,-0.12253454327583313,0.09513949602842331,0.1025577113032341,0.06429248303174973,0.05428013578057289,0.18860839307308197,-0.15943779051303864,0.08265014737844467,-0.07440675795078278,-0.1383017599582672,-0.1515531986951828,0.12053917348384857,-0.1641574501991272,0.07025203853845596,-0.08704344928264618,-0.10420617461204529,-0.2069626897573471,-0.11089865863323212,-0.030584292486310005,-0.14483530819416046,-0.17037130892276764,0.036313340067863464,0.0892288014292717,-0.05997241288423538,0.005844468250870705,-0.10534898191690445,0.06492256373167038,-0.013195468112826347,-0.1568031758069992,-0.06569050252437592,0.05927472189068794,-0.025889499112963676,-0.1099834069609642,-0.19562432169914246,-0.12055294215679169,0.05674382299184799,-0.0722259134054184,0.018893325701355934,0.13254445791244507,-0.08523931354284286,-0.09784477204084396,-0.0063310544937849045,-0.16699554026126862,0.0910160169005394,0.09544287621974945,-0.008780566975474358,0.1521725356578827,0.10986066609621048,-0.03533302620053291,-0.033143430948257446,-0.11378040909767151,0.0721149668097496,-0.0893562063574791,0.17796869575977325,0.0583360455930233,0.1031915470957756,0.07046572864055634,-0.055641818791627884,0.06495314091444016,-0.11139349639415741,0.0864052101969719,-0.06018337979912758,0.10828595608472824,0.18916267156600952,0.04669155552983284,-0.18209123611450195,0.13178794085979462,0.0472414456307888,-0.17427437007427216,-0.1630212515592575,0.09494948387145996,-0.035027168691158295,-0.12777499854564667,-0.0427921861410141,-0.15134912729263306,0.21111474931240082,-0.11298466473817825,-0.003091257531195879,0.07087072730064392,0.0024656872265040874,0.06981125473976135,0.07639938592910767,-0.0903375968337059,0.17106850445270538,0.1816653311252594,0.13053728640079498,-0.07968185096979141,-0.1828894019126892,0.10582704097032547,0.08278054744005203,-0.18803417682647705,0.12385992705821991,-0.16965068876743317,-0.13420166075229645,-0.1055913120508194,0.14177867770195007,0.1526271551847458,0.08763416856527328,0.10584454238414764,-0.20736491680145264,-0.0971609577536583,0.15390455722808838,0.10427583009004593,0.11554301530122757,-0.13206300139427185,0.14669667184352875,-0.08899829536676407,-0.14591793715953827,-0.10796071588993073,-0.22013914585113525,0.03151979669928551,-0.0009105456992983818,0.10072876513004303,0.043016716837882996,0.13687282800674438,0.03912533447146416,-0.11097884178161621,-0.10822328180074692,0.17052464187145233,-0.12651051580905914,-0.21557168662548065,0.15140080451965332,-0.14662642776966095,0.1469055861234665,-0.04303750768303871,0.011309757828712463,0.05217849463224411,-0.13953836262226105
-0.7851628065109253,0.10168635845184326,-0.757339358329773,0.3467479646205902,1.1162928342819214,0.5355254411697388,0.1741936206817627,0.5842767953872681,-0.33133989572525024,0.9633913040161133
