-0.005025971680879593,-0.018471334129571915,0.014686858281493187,-0.01629622094333172,0.15216872096061707,0.009954079985618591,-0.014773491770029068,0.028879962861537933,0.026956334710121155,-0.009056076407432556,-0.033117469400167465,-0.04204699397087097,-0.1436714231967926,0.03197615593671799,0.028348051011562347,-0.08457347750663757,0.028568916022777557,0.00043269735760986805,-0.0378098264336586,0.010064198635518551,-0.030366690829396248,-0.17529983818531036,0.02005111798644066,-0.005094713997095823,-0.011983995325863361,-0.004712692461907864,0.01741921156644821,0.0317566841840744,0.011171000078320503,0.016335930675268173,-0.013357358053326607,-0.016769804060459137,0.030053816735744476,-0.10239017754793167,-0.020357780158519745,-0.016286799684166908,0.14391054213047028,-0.00886414386332035,-0.16044332087039948,-0.0597492977976799,0.019414018839597702,-0.05132577195763588,0.027315162122249603,0.2709798216819763,-0.012158984318375587,0.0009330292232334614,-0.22976206243038177,-0.012996751815080643,-0.04626286402344704,0.038379136472940445,-0.05457659065723419,-0.033954963088035583,0.12999093532562256,0.0018537234282121062,-0.049339909106492996,0.0005406718701124191,-0.26471957564353943,-0.00934020895510912,-0.02520642802119255,-0.016557348892092705,0.20665907859802246,-0.03685087710618973,0.013685506768524647,-0.04280230030417442,0.014199596829712391,-0.010910442098975182,-0.008556023240089417,-0.050368499010801315,-0.008500094525516033,0.02315511554479599,0.014672099612653255,-0.055928364396095276,0.0025439802557229996,0.040494419634342194,0.002203337149694562,0.00542018748819828,-0.014145052060484886,0.003271878696978092,-0.041164904832839966,0.008415119722485542,-0.12885379791259766,-0.010396400466561317,-0.00883580930531025
0.28557613492012024,-0.2872442305088043,0.32879185676574707,-0.1460040807723999,-0.050316572189331055,0.02446012571454048,0.053714483976364136,-0.2516418397426605,0.20847760140895844,0.15681275725364685,0.03159055858850479,-0.20397543907165527,0.0771179124712944,0.1519766002893448,0.0833679810166359,-0.0005087139434181154,-0.24806950986385345,-0.03344786912202835,0.09505357593297958,-0.15225502848625183,-0.018602320924401283,-0.16123835742473602,-0.15802253782749176,0.16540387272834778,-0.0036968213971704245,0.09458332508802414,-0.09081736952066422,0.1973017007112503,0.1768953800201416,0.25059497356414795,-0.11955730617046356,0.119749516248703,-0.12058371305465698,-0.18705140054225922,-0.0052733956836164,0.07072943449020386,-0.18052664399147034,-0.18998266756534576,-0.0044886223040521145,0.008030225522816181,-0.21953752636909485,0.16571877896785736,0.11181458085775375,-0.06659466028213501,-0.2781726121902466,0.21787644922733307,0.004220017232000828,-0.11205364763736725,0.23074635863304138,-0.049762822687625885,0.2255188226699829,-0.03781051188707352,-0.0025073953438550234,-0.05618744716048241,-0.17175066471099854,0.09341653436422348,-0.1662687510251999,-0.28766879439353943,-0.1327158808708191,0.06853974610567093,0.19519394636154175,0.07107341289520264,0.1684429794549942,-0.27213236689567566,0.08000448346138,-0.07370723783969879,-0.17783978581428528,-0.08647166937589645,-0.1286950260400772,0.12635809183120728,-0.0011201160959899426,-0.2267744392156601,0.18255296349525452,0.1828879714012146,0.0330369733273983,0.15383440256118774,0.1148703396320343,0.029267894104123116,-0.16019301116466522,0.04275049641728401,-0.06853951513767242,-0.1629347950220108,-0.10845830291509628,0.21808697283267975,0.22122342884540558,-0.20729558169841766,0.2792571485042572,-0.16690392792224884,0.024775182828307152,-0.07704447209835052,-0.11655081063508987,0.1859171837568283,0.09883265942335129,0.019640373066067696,-0.288612961769104,0.11081594228744507,-0.0041708205826580524,-0.12177825719118118,0.07047603279352188,-0.012507745996117592,0.09884888678789139,0.22240912914276123,0.18915176391601562,-0.19937096536159515,0.01312924362719059,0.19269965589046478,-0.1295253187417984,-0.16917480528354645,0.02470138482749462,-0.11270220577716827,0.17818544805049896,0.11077125370502472,-0.05470177158713341,-0.06478738784790039,-0.1969161331653595,0.04754576086997986,-0.08991411328315735,0.1099403128027916,0.01944771781563759,-0.1090802475810051,-0.0875755175948143,-0.19047965109348297,-0.3256695568561554,0.25731343030929565,-0.1769278347492218,-0.15852537751197815,-0.22917944192886353,0.08652041107416153,0.06480280309915543,0.031188057735562325
-0.6055322289466858,-0.7538766860961914,-0.19305145740509033,0.2921071946620941,1.0852923393249512,0.34171009063720703,0.7652536034584045,0.4101945161819458,-0.22157195210456848,0.2353418916463852
